20028 300
， 0.53598934 -0.9713885 0.30973262 -1.9453241 1.3593298 -1.2035028 -0.18868299 2.2665837 -0.724596 -1.1433088 1.5454272 -1.3416163 5.205214 -1.1561394 -0.60108477 1.5375512 0.39570263 -0.543893 -0.97021115 1.0502852 -0.17779677 2.5697255 1.3560481 -0.16066468 2.1906087 0.6468802 1.1104667 -0.93801767 -0.78957677 -0.6023449 -0.36740208 -0.5432908 -0.85223603 -0.7430192 -1.8185954 0.69706 -0.103225484 2.8695478 -0.44316104 1.4713972 -2.6246555 -0.30430025 -1.7274735 0.04924619 1.3140893 -0.5224505 0.9602296 1.6160423 -1.9311407 -0.6834241 1.1651342 -0.43651047 0.8173462 0.5477237 0.15884733 0.09896168 -0.70891404 1.0852927 1.9968163 -1.1439428 -1.809666 -3.3132133 -2.5476673 1.1090101 -0.5469574 -0.99860513 -1.5568174 -0.03918119 -0.512704 -2.4663272 2.332837 2.1274588 0.9720238 0.06000049 -0.38062292 -0.25130168 -2.428082 -0.91170645 -3.0013766 0.23944806 0.7195796 0.69821304 -0.6111759 0.5969325 1.2594719 0.5421772 -1.105127 0.9602198 0.02615147 -1.3021249 1.282672 -0.17984904 1.1183991 -2.0996015 0.21142542 -1.1785809 -1.4086491 2.219585 -0.27753893 -1.5604515 -0.20606558 1.0810516 0.8600267 -0.3947003 -0.5546266 1.3696959 -3.204141 0.150319 -1.3581599 -0.64860785 0.017965952 -1.0019026 -0.3384921 -0.11608617 -1.0210699 0.12633838 -0.7009048 -0.531607 0.6255967 0.025031684 0.90943784 0.015407905 1.2456996 -2.5003324 0.5284613 1.9307605 -0.694666 -0.33340725 -0.749078 -0.075208634 0.7289148 0.23356213 0.08545903 -2.5626686 -0.88114107 0.4849348 0.402355 -2.0560737 -1.7041152 -1.9535893 0.22422393 0.72722805 -1.5780358 1.322614 -0.45521355 -2.020552 -0.075332455 0.17506199 -1.3949988 0.70305175 0.20277026 1.4941462 -0.94314533 -0.8347856 -0.44045472 -0.18385616 -2.1043444 -1.4775674 1.6075716 -0.68400925 -0.22298107 -1.9253651 0.55797625 1.841715 -1.6375601 1.1733854 -0.6796959 -2.3047192 -0.5291657 2.3122637 -1.4329531 1.0105982 0.7682997 -1.2831662 -3.193791 0.5118987 1.6140369 -1.1788051 0.2602323 -1.6554456 1.1000246 -1.7537011 0.00812929 -0.43986708 -0.62249345 1.232407 -1.7510284 -0.9294329 0.5056889 -1.3456926 -0.9038484 -1.2441492 -0.21601883 -1.743455 -2.677259 0.610096 1.8590169 1.0660696 -0.8570041 -0.66668606 -0.23073171 -2.4896305 0.1414436 -1.910034 1.6928208 -0.105902776 1.26701 0.698546 0.78627306 0.7593931 -0.29942197 0.23308766 -1.3649328 -2.8756218 1.0604779 -0.69277614 -1.9321486 1.5766835 -2.05928 -1.7745452 0.38860437 0.34880507 -2.6571908 -0.39170602 -0.98209345 -1.2901576 -0.20657256 -1.7056286 0.5314605 1.292954 0.32201877 0.38482627 0.4305118 2.2759855 0.60798603 -0.66683686 0.02141696 0.71042514 2.2548542 -0.08051688 0.17870146 0.15162784 2.2299187 0.4060323 -1.3611319 -1.5187566 -0.23161629 0.687067 -0.22696985 -0.22851239 -1.5301596 0.14776316 1.8327574 0.22751433 2.5554533 -1.1001016 0.85092264 -0.32102358 -0.35818365 -0.9570363 -1.7250334 -1.0538667 -1.1037192 2.1527243 1.3953196 -0.1154577 -0.4860901 -0.21673748 0.7469965 0.52933973 -0.42043987 1.4228109 0.81375605 -0.14665787 -0.41767246 -0.11533007 1.1810619 0.2748162 0.5111661 0.14274052 2.4664173 -2.351213 -0.03841115 0.81167 -1.426649 0.8685485 1.6422284 -1.126652 0.18012528 -0.14283897 0.8414351 -0.00041512251 0.6894668 0.4000048 2.2260683 -1.2750378 0.31421882 -0.80727774 -1.6937603 -0.49037415
的 2.978735 -1.365708 -0.30137533 0.98598164 -0.93531597 -2.0887496 0.82262063 0.1405887 1.3268892 0.8953885 0.9150818 -1.940671 -0.23863138 -1.1194358 0.92210907 -0.073009975 -0.9129684 1.5440196 0.46256107 -0.7803222 1.2338665 -0.47661933 1.7063696 0.58553797 0.10530446 0.58252597 1.5465487 0.20562138 0.74697894 0.13835667 0.17858772 -0.049472023 0.5549748 -2.392307 -2.756732 -0.43753013 1.0228593 1.4924607 -1.0491805 0.058222767 -0.89611524 1.4335048 -0.30895817 -1.0000846 0.06966394 0.18879884 0.60089743 0.9389458 -0.28769687 -1.8154671 0.35415998 0.1552071 0.6514286 -0.24633479 -0.24145639 1.7307094 0.4945923 1.7318954 -0.44420242 1.1492462 -1.2807457 0.28585082 -1.2010807 1.1901362 0.81764436 -3.0219283 0.8549862 0.58731425 1.5698462 -0.71094525 0.15463653 -0.576169 1.0205793 0.045903366 0.9661487 -0.26717138 0.2850703 0.89510304 -1.3570311 1.367258 -1.306424 -0.39668018 -0.64856756 -0.43613198 -0.098282225 -1.3335929 -1.6696695 1.1915474 -2.1026409 -1.1497996 -0.54730076 -0.47821137 1.3409678 -0.8285684 -0.2011453 1.9010669 0.70439994 -0.088181585 -1.6193734 0.48816484 -2.2125025 0.7487414 -0.6352462 0.018827192 1.4925256 0.5967269 -0.95133007 -1.0438657 0.19711936 2.2224574 -1.0904261 0.09579464 0.25807148 0.3134403 0.9151662 0.35010052 -0.5104471 -0.3803957 1.4900502 -0.3488007 -0.68478143 1.9203433 -0.68011236 -0.81280196 1.337137 -0.9354279 -0.11394329 -1.0483055 0.27033287 0.0421715 -0.98889595 -0.44523534 0.32297936 -1.56715 0.9929226 1.9711155 0.1107671 -0.8920988 0.7003027 0.16336063 1.0954123 -0.9059615 -1.6183157 0.0008771016 -2.3824308 -0.83303773 -1.3910412 0.66877323 -1.1396466 -0.77932084 -2.35204 0.80828327 -0.049507674 1.5461686 -0.94868743 1.1013392 -0.42319942 0.377968 0.6793804 0.7400684 -0.79175663 -0.039234176 1.3868908 1.4573709 0.14384678 1.0063082 -1.0297828 -0.5941552 1.1643906 0.7054602 1.167574 0.3946665 0.42448464 -1.7675027 -0.24479587 1.0074614 -0.9783589 -0.73374546 -0.99317354 0.016281553 -0.60610837 0.58623374 0.5222985 -1.2899039 -0.23942548 0.16052622 0.3682692 -0.08120867 -1.4154001 -1.0453556 -1.6821511 -0.61106247 -2.2257974 1.4409086 -0.79061973 -1.430788 0.6447158 -1.8781549 -1.5719098 0.5962427 0.4752029 0.68091124 -0.77374995 -0.7030165 2.7639844 -1.1889399 0.504606 0.07614149 1.6491826 1.8225894 2.3295364 -0.19981962 1.7745218 -0.32756808 -1.3462685 2.6525643 0.31198344 1.030039 -0.83074653 1.2199847 0.17439309 -0.09750787 -0.8353771 -1.5048641 0.2488065 0.80713576 -0.705677 1.8090389 0.4708201 1.1853075 -0.36186236 1.498284 0.46160507 -0.83621264 0.08227985 1.1410313 -1.9620209 -1.0932524 1.924661 0.35270578 -0.8505671 -0.8467656 -0.13801625 -0.17170376 -0.36453062 -0.54801965 0.58506984 -0.42616576 0.20297065 -2.3509486 -2.6478498 -0.47945562 -0.04306063 0.49429056 -0.20328279 -1.2936616 -0.2537276 0.40183243 -0.8273212 0.80550796 -2.6255689 -0.8213305 -1.6344295 0.89451116 -1.1767868 -0.5644008 0.15863949 1.0739692 -1.0732758 -0.42656 -1.0619552 -1.5216061 0.36179206 2.0511734 -0.37916932 1.1551956 0.49736494 0.76754534 -0.08504538 0.9869005 -0.92983025 0.03787959 -0.37794903 0.27650586 -0.86652136 0.30321062 -0.4870501 0.87466985 1.1258479 0.9319609 -0.78867203 -1.8816023 0.22340728 0.08331851 4.0192733 -0.9203849 -0.3534096 -1.4946918 3.5942063 0.573181
。 1.6830103 0.09619211 0.038369447 -3.111596 -0.43818024 -1.2221212 -1.6296574 3.2852702 0.58520275 0.17123528 2.064992 -0.8916768 5.4537034 -1.7143307 0.99749595 2.9594822 1.4313198 1.1725643 -0.14815077 0.9433734 0.9467892 2.5784822 1.1704136 0.81862575 0.32747883 0.7279054 0.9924134 -2.5177505 -2.724923 0.2790248 -0.061694633 -0.43942997 -2.4622324 -1.2255808 -3.226772 1.3991265 0.8340835 2.8592646 -0.35584277 -0.52878135 -1.1598742 -1.5324908 -2.654153 -0.6387369 1.2986175 0.73279446 1.5348455 0.84126884 -0.3886639 -0.09310577 0.061536048 -0.3567793 -0.36777478 -0.2881169 -0.7996962 1.2168664 -0.10997622 0.97774595 2.5420735 -0.63955295 -2.2003338 -2.7264419 -2.4018023 1.4062661 -2.1224236 0.04180944 -0.081941776 -0.5087939 -0.54597443 -1.2989509 0.55833554 2.4947608 -0.6577918 -0.17090613 0.73019165 -0.51572895 -4.3448534 0.2808025 -3.1314337 -2.3547957 1.4328784 0.7483184 -0.6307804 1.3593962 2.4259212 -0.88342535 -1.7865454 -1.311741 2.2500412 -1.0262146 0.5965533 0.2428926 2.1075468 -2.7364984 0.50159955 -0.44618016 1.1905457 0.46911937 0.20249376 -0.55960155 0.78886664 0.23507652 1.0966859 0.4663773 -1.2208352 2.1646483 -3.1843405 0.12962623 -2.123258 0.58485276 0.6657782 -0.44838858 -0.39241102 -0.49457267 0.20142543 0.10148517 -0.54710984 -0.27316317 -0.8099409 -0.49032593 -0.49861398 0.6787598 -0.9966115 -1.8097999 0.5714847 -0.54149216 -0.30245957 0.087840565 -1.8419777 -1.1548865 0.39643258 -0.14676014 -1.8903719 -2.4481888 -0.81591034 0.26096815 1.457081 -2.5689023 -2.4347754 -1.3480752 0.43660852 -0.18624704 -1.2199452 0.9997025 -1.5067009 -3.1902142 -0.694695 1.83146 -1.1564425 0.871329 -0.75631034 -0.030755948 -0.58780813 0.91537684 -1.0290899 -0.11570309 -2.3289628 -1.1294502 1.1965253 -0.14803284 -0.55020696 -2.0406873 0.6232929 1.8358618 -1.7835925 2.7907922 -0.36201423 -2.7989936 -1.6571896 2.2962961 0.24731281 0.21297728 1.1447575 -1.3129889 -2.2921815 1.0534593 2.7993045 -0.12906803 -0.65376866 -0.723855 1.2402966 -1.2729076 -1.9493225 -0.64660126 -1.1453704 -0.84415483 -1.5198144 0.2739921 -0.034078516 -1.8731701 -0.5391795 -1.6642413 -0.89687836 -1.0960017 -2.6709917 1.2663352 1.2448364 1.2482265 -1.4316322 -1.2481899 -0.88190484 -2.0538492 -0.2294113 -1.13247 2.1679325 -0.73858327 1.4663543 0.6791433 1.1152639 -1.3224945 -0.74580353 -0.7365167 -1.3981154 -2.433935 0.80507416 1.4505049 -3.5435743 0.6118754 -1.0124035 -1.1298034 0.1766445 -1.361076 -1.4341799 1.1090531 0.6773821 -1.978498 -0.81018925 0.438267 1.4134966 1.6442518 0.59362155 0.5666247 0.08986344 2.5831826 -1.5721937 -1.5444711 0.703197 0.99426043 2.545708 -0.46518022 1.437611 -0.57208353 3.7345018 1.3189665 0.71645933 -1.396424 1.0261108 1.0143299 -0.060561173 0.7621956 -1.9920468 1.7354128 3.7129762 -0.317706 2.332861 -1.3290107 1.1592518 -0.9413201 -0.7805871 -1.5868279 -1.7931138 -0.15344045 0.48189023 4.4287558 2.3662071 0.03978881 -0.7176775 -0.22241029 -0.5213166 -0.09863781 0.08307709 1.3807096 -1.5618457 -1.375506 0.07748911 -0.121161334 1.7988417 0.0149195 2.042186 -1.1474686 2.1431909 -1.1259764 -0.85971993 2.4558294 -1.2352582 0.18105316 1.9634844 -1.8998212 1.6189467 1.0240686 2.6215403 -1.5758624 0.50279427 -0.4680664 2.8606 -0.32963344 1.2164273 -1.1626914 -2.2011893 0.80727977
1 0.23715822 1.6428715 0.5057647 -4.05424 2.0886545 0.5156037 2.2480025 -1.351537 0.7609324 -1.5630889 -2.061932 1.3008549 -1.2436609 -0.95336175 -2.8508482 1.9335835 3.9575982 3.223788 0.40359232 -1.4886329 -0.09406857 0.78509086 -3.2477963 0.6360214 -1.373091 -2.2223501 -1.8007151 -0.779658 -4.6955657 -1.4513109 1.7204766 1.8749926 0.11523814 1.4746633 1.1337422 -1.9791775 -0.22144772 -1.3647211 0.91337705 -1.2338434 -1.5754687 -1.122644 -3.0478468 3.8460975 2.1124463 0.09162997 -2.1997402 -4.205447 1.3315902 -0.754509 -0.6398115 -3.239682 -3.445274 -2.3693361 -5.0944376 0.5776638 -2.9477565 1.2265598 2.5947487 -0.89057696 1.4941025 -2.6476948 1.1672704 0.78801954 -1.0583491 2.8264961 -3.3426914 -2.7739744 -0.44818223 -1.2513773 -1.8267269 -0.27655146 -0.22274941 0.5211688 -0.13288735 0.3411437 0.16345608 0.9595835 -0.4246398 -0.91096145 0.8269307 0.6337195 2.9505389 2.4196932 1.2621347 0.19147082 -0.1464689 -4.3990636 1.5727382 1.8153486 -0.7474022 2.7120464 -2.0475738 -0.9038144 0.34492445 -0.22254403 -0.43541214 -1.0857415 5.4951444 -0.94229287 -0.9461431 0.26854205 2.0627978 -1.7625766 -3.6578019 -2.099435 1.0493222 1.7758528 -2.7948685 2.6708815 4.1304264 -3.0736835 -1.5599128 2.1326442 -0.14985777 -2.448103 1.6669897 0.7502315 -0.95804346 -2.0710926 -2.094486 1.0332959 2.1329794 -1.061481 0.7177615 1.168669 -1.3139068 -2.3602724 -4.575017 2.2617834 -0.9237442 1.0104831 -1.9537345 2.8763478 -0.0740081 0.07872921 2.9780397 -1.0230142 1.3551577 -3.1094592 0.7704005 0.9487065 1.8306099 0.18305601 -0.2591045 1.6528187 -1.7162714 4.585734 -3.5248885 2.0276852 0.5202182 1.5844804 0.25098428 0.8926637 0.11439739 -2.79403 -1.2770329 0.52261716 -0.72697455 -0.6217912 2.3006887 0.7296055 -3.056545 2.590202 2.0613322 -0.40376937 0.32355818 -2.2454128 -1.3761215 -0.11138089 -3.5228844 -0.25346166 1.7477617 0.25600848 -0.30143467 1.8458183 3.3582344 -3.8953683 -0.2400168 1.1734339 3.077295 -2.1174927 -2.0666816 0.9430215 -0.3011648 -0.7954988 -0.2798905 1.2026209 1.8413848 -0.6348328 2.9796858 -0.75118405 1.1426225 -0.14115562 -1.1048723 -0.28015268 0.4560265 2.4442768 0.41448715 -0.7172175 -2.4376614 -0.20468596 -0.09287438 -0.3752636 -0.57112753 -2.7409966 -3.160453 0.1297111 -3.0118196 -1.9640588 -1.6230972 -1.7637143 -5.234982 -0.07528376 1.623424 -2.072856 -0.5755904 -1.7560751 2.7854526 -7.3774533 -0.9549666 0.8508488 0.701708 0.438184 -0.823043 -1.3080819 0.5693915 -0.4265139 3.0924685 1.8327836 0.58462435 0.17776474 -3.0304658 2.4795783 -5.4527497 2.333708 1.3592994 0.842608 0.26685807 -1.0957212 2.605893 1.6409794 0.44884756 -1.9679499 1.3221688 1.0948586 -0.027009118 0.25375563 -0.10893889 -1.2563713 0.31320906 1.4219468 -0.9095588 1.6380116 -2.4538767 -2.1029522 0.23093104 2.477309 -0.8257892 -1.8647597 0.5194567 2.2719922 3.2981799 -0.5277594 -1.7883168 1.4970441 0.76016945 -4.661196 -1.2203225 -2.659795 -0.54466486 0.89253485 1.4496874 -0.4673396 0.703693 0.4772073 1.8128495 1.1171926 -2.0223167 -2.0568445 -1.6807178 1.0456342 0.43606102 -0.10071594 0.5550129 -3.174069 0.6350278 -2.3204188 -0.97538805 0.6795908 -0.67427236 -0.7276389 1.5258586 0.074824035 -3.118779 -1.2993987 3.3052075 -2.1314473 -3.5330884 4.046995
0 -0.6431628 0.89227 2.2219083 -3.8687031 2.2086914 0.69583136 0.92985606 0.5479317 0.5891316 -1.4053608 -1.809896 -0.010248539 -0.50017744 -0.98845285 -1.7683644 -0.31344923 4.327924 3.0912704 0.44134474 -0.74451816 -1.7997429 -0.35920942 -2.5253325 0.38106447 -1.2898352 -1.4351525 -1.4123217 -2.5512626 -3.019689 -4.3013134 2.8299742 0.944268 0.20910798 2.598322 0.869126 -2.9331355 0.08642444 -0.37699685 0.11043656 -0.65903693 0.82884043 -2.1176724 -2.9560354 4.4863605 2.5583758 -2.1814468 -1.2106442 -4.7241287 0.57155585 -0.51429063 -0.8650296 -4.4482684 -2.063856 -2.540521 -4.8739357 -0.13264386 -1.2312689 1.121074 2.1605463 -1.2829849 1.422792 -2.3657403 1.3160511 2.1719968 -1.4147922 2.2373433 -4.135154 -2.365511 -0.7923085 -0.738696 -2.8000808 -1.1010209 1.006146 -0.7663302 -1.4484265 -0.91493624 0.10326279 1.3057235 0.60840803 -1.7942146 1.1203574 2.9071422 3.541554 2.4692602 1.4226136 1.4856712 -0.13816684 -5.377271 3.921843 1.8397557 1.1901293 3.7802124 0.12015515 -1.7014782 0.7260327 0.8607707 -0.80479366 -1.1480421 5.6924067 -0.567468 -1.5199671 -2.538799 2.2857826 -3.040602 -3.3457413 -1.1438482 1.1090242 2.3617933 -2.6040936 2.138264 2.6018996 -2.477456 -3.4044945 -0.20737343 0.29298067 -1.6553555 3.022275 2.3374639 -3.0457497 -2.1907058 -1.9601687 0.8426526 2.1132772 0.30308932 -0.83984464 1.2149333 -2.4956152 -2.3890214 -6.0538063 2.3516169 -1.0170876 -0.60634595 -3.0518296 1.5864724 -0.6203563 -0.22034232 3.6710417 0.007689023 1.8747967 -4.3909287 1.7172443 1.9558023 0.51345694 0.556461 -0.2479318 1.4696051 1.1411345 5.3862653 -3.0232556 0.82985204 -0.6729382 0.64294183 0.108301714 1.4489183 -1.9271767 -2.7930195 -1.6661645 0.08619355 -1.2245793 -0.9496184 2.5178735 0.10542714 -4.3858647 2.98677 1.0034472 -0.2566995 0.31627673 -1.9105301 -1.3412353 -0.27065718 -4.141959 1.3113549 1.3352994 2.7527192 -0.5256789 3.2558076 3.7951636 -3.3779597 1.5608194 1.8820187 1.8240886 -1.4687811 -2.7990668 0.9222931 0.8535122 -2.8862832 1.2445414 0.3184061 1.9668275 0.006937748 2.9959867 -0.51534164 1.7419226 -0.9237808 -1.211206 0.26399994 -0.8997391 2.796421 0.32104242 0.029120846 -1.4962573 -0.0018259997 1.1504413 -0.32722828 -0.72232467 -3.6678467 -2.3922875 0.2322872 -4.110572 -1.9491152 -1.2157601 -1.7304845 -4.611276 -0.88107586 1.940683 -1.5131449 0.6388589 -0.8319636 2.4414506 -6.0312953 -0.259572 0.18038666 1.2498107 0.46963593 -1.4685665 0.30009747 -0.009769715 -0.43492463 2.5042844 1.5086542 0.40215242 -0.3372389 -2.2255573 3.2695909 -5.4721475 3.911515 -1.4921889 0.034263235 -1.0409675 -1.1128861 1.3882488 0.6753195 -0.40595642 -2.3700535 1.7009705 2.5521448 0.55325603 1.6835743 0.6815072 -1.6146071 0.17310777 1.427912 -1.7386266 1.6232651 -2.3563726 -2.0899577 0.29912233 2.0281587 -0.81819123 -1.6461735 0.36238435 1.6190706 3.941011 -0.61931825 -2.7627764 3.0329626 3.7970018 -6.066009 -1.3702296 -4.793307 -1.2283087 2.0355723 2.6594536 1.1552343 -0.4528431 1.5971516 1.4577534 0.77383286 -1.5955635 -0.06497579 -0.6734833 1.0574024 0.091446914 -0.10267866 -0.29622686 -3.188334 0.7366628 -1.7182862 1.3179197 0.5455796 -2.1714718 -0.7657714 0.54965913 -0.62036747 -4.1112194 -1.8369322 4.5242524 -2.3513765 -2.1900847 3.4841363
年 -3.7455716 0.66276824 -2.2454975 -4.2686634 0.9185463 -0.014745618 -2.9755902 -2.095014 3.4475243 -3.966059 1.4276397 2.8518164 0.5460418 1.8857955 -4.2291203 0.638692 2.247076 0.55736357 0.34702885 1.049591 -0.52526593 5.007416 0.048466466 1.1890459 1.5252275 -3.1151748 -3.3576667 0.28223 -4.5098615 -2.1218798 0.24934688 -1.0706317 -2.6260283 -0.56215435 4.1093597 -0.058728363 0.3325954 1.9040471 0.021156512 -1.8276122 -1.4852268 -0.90808594 -4.1041207 -2.9722183 -1.0269904 2.2886026 -3.3052278 -3.2339404 -3.6359572 2.1571321 0.18350507 -0.2645382 -3.2565475 -4.875431 -3.6769876 -1.0516461 -5.167963 2.552457 7.6714516 -0.16139655 2.0684965 0.3949768 0.99105924 -1.0693686 -1.3809798 1.6189393 -5.4427214 -2.110917 1.188682 4.6944723 -1.8522007 1.5149922 -1.7190684 1.5638477 -1.4091167 -1.6208664 -2.8202717 5.2293906 0.014651956 -3.335063 0.70990217 -2.3409016 3.7193038 0.96765155 0.5838115 -2.0892513 -0.14642432 -7.121753 3.500976 -0.05623808 1.5940307 1.5999371 2.967686 2.901046 1.3289219 -1.0307069 -1.6099696 0.5969256 2.2777734 2.2374535 3.147927 4.362432 2.937284 0.06905977 -3.3695626 -0.3026781 0.34756398 -2.5715742 -2.9841616 1.5760895 5.2478375 -2.2954066 -3.0871453 2.5129242 2.482696 0.7971595 2.3012419 0.36694083 -3.2053218 -4.629593 -3.6042132 -1.1743417 5.465902 -1.7065563 1.5934808 1.8320123 -2.5502138 -2.7394984 -5.7994714 0.39711094 -2.4945123 0.66490346 0.1288043 5.6388083 1.223536 -1.8124192 2.2642775 -4.0719166 -1.5420285 -4.920321 -1.7886703 0.11731069 3.3085032 -1.2461742 1.507531 3.6549165 2.4132304 5.726603 -0.115338445 3.2052436 -1.0968485 -0.50563943 -1.7463273 0.12811014 -1.7165868 -1.2164541 -1.798184 3.826752 -1.7566217 0.26668328 1.0774841 -0.18234134 1.8045318 1.5821041 1.1827098 0.5725571 1.8716078 -3.2828615 -5.3862796 -0.43154222 -2.4903743 -3.9630175 1.8808509 -2.0349941 -0.3310266 -0.7075618 2.955754 -2.683064 1.1974411 2.3039534 -3.0840995 -5.8390164 -1.6642596 1.7339786 -0.3656632 3.1374025 1.9771076 2.404983 2.6588714 -2.7675846 2.1938355 -0.022441495 1.9321315 -2.1196537 -0.076346725 0.8409429 2.0400214 3.9512005 -2.0087025 -3.6328714 -0.26736456 -0.009314283 0.9734723 2.2901623 -0.77423453 -0.0003001617 -1.9011345 2.7331004 0.17988054 -6.725948 0.113373004 -4.6100283 -2.4765174 1.2708337 -0.39643744 -0.5870235 -2.5571418 0.36465666 2.1846168 -3.5306556 4.0864363 2.7918148 -3.4004288 -0.028515771 -0.046791006 -3.2874436 0.11448394 -0.63529295 0.88289064 2.9065716 -0.050034937 0.7189838 -1.9412642 5.3548408 -1.2844088 3.7794886 6.784584 -1.1608166 -0.2749593 -2.2152927 1.0683832 5.5326705 5.5315814 1.8169969 0.991466 3.6191664 -0.0714929 -0.97332823 3.5698502 -2.6691575 -0.33694017 1.1916394 1.6095837 -0.55019647 -3.7019012 -6.208323 4.109457 -1.4434493 -2.777747 -3.2136755 2.7806706 4.97559 1.5951114 -0.558946 -0.541198 3.5731568 0.53487587 -1.1172549 -1.9233053 -6.0735583 1.6673251 3.4088216 3.0510013 -6.478691 3.286769 0.15051305 3.8114493 -0.8687638 -1.5001104 -5.762938 -0.8063176 1.0498868 2.0261414 0.06352023 1.4765373 -2.0783734 0.48630297 -2.825739 -3.1003683 2.2532747 -1.0057058 -0.5965728 -2.5222406 -1.8734418 -1.3860384 -0.6677365 4.916259 1.4165162 -6.3818984 1.1640025
2 0.41583383 1.7257172 -1.0593777 -3.632363 2.2475746 1.0394123 2.4761336 -0.80907756 -0.089398004 -0.33986512 -1.1393261 0.23840673 -2.1135533 -1.1438977 -2.0882127 0.2057834 3.6587446 3.4144073 0.10480711 -1.5777552 -0.19487217 -0.13272737 -2.3361578 -0.8440041 -1.1933805 -2.278616 -1.6745712 -1.2588131 -3.7656431 -1.3718859 2.5004876 1.5737756 0.10111292 2.8450732 0.8273682 -3.2592633 1.0017356 -0.70889056 0.3579215 -0.681278 -1.0234079 -0.34372115 -3.0745237 5.4149036 1.508831 -0.9316833 -0.8370773 -3.5710602 1.3913071 -1.0468116 -0.86360395 -2.567779 -1.6724945 -2.4015305 -5.2198143 1.6769153 -2.3837194 1.2405806 3.1734025 -0.8573595 1.8320411 -2.4234009 1.1912435 1.7552967 -0.74016243 1.9628681 -3.4692833 -2.183265 -0.49784827 -0.6504139 -1.98301 -1.8776947 0.08580608 0.058001306 -0.9769723 0.15068443 -0.8733261 0.9708904 -1.3395057 -0.9854305 0.49424765 1.2309886 3.2927835 2.9124336 1.1287631 0.4923234 -0.7822262 -4.9542546 1.6654718 2.7937906 -0.025090998 2.3226497 -1.9370351 -1.2053896 0.98546046 2.2371225 -0.4685381 -1.1030132 5.138114 0.16474555 -0.49816185 -1.2322636 1.7430779 -1.7197134 -3.0247183 -1.8643985 1.9757468 2.5572755 -2.989712 1.8132132 4.237173 -4.0902348 -0.49176183 1.0680171 -1.0104648 -2.4482677 1.4318285 1.8851784 -2.2453458 -1.8354951 -3.0491426 1.4790365 1.9658843 -0.51257336 1.8966446 0.3825025 -0.57979167 -1.5837033 -4.0510454 2.2594204 -0.3672914 0.35116512 -2.1145873 2.3819919 -1.1963024 0.15052831 2.1417284 -0.010587928 1.5342898 -3.2246816 0.00949653 0.30757117 0.7246628 0.21420598 0.5863213 2.520453 -0.68606746 3.7694035 -3.4739172 0.51077557 0.3827008 0.5868544 -0.1752664 0.63968396 0.44588813 -2.5334218 -1.2761592 0.5272763 -0.66698 -1.1797965 2.976792 1.5766991 -3.433595 2.8549938 -0.2080775 0.3860369 0.03087494 -1.9620024 0.20330901 -1.7513875 -4.3391995 1.2060406 1.3105651 1.3850764 -0.039911862 2.8208358 3.8588443 -4.2087464 0.037772194 0.72142345 2.5496051 -1.8193514 -2.0582383 0.49070263 -0.026829086 -1.7701896 0.230939 0.58464855 2.0022466 0.7732318 3.2267978 0.068224914 1.1091448 -0.07542672 -0.93704766 0.23800036 0.7048667 2.0809386 0.5209781 -1.4729303 -1.9048606 0.085923314 0.38002378 0.07313117 -0.9181155 -2.848187 -2.8685336 -0.047343057 -4.4568844 -1.1265309 -2.3672585 -1.0419922 -6.07288 0.5154198 1.2773905 -2.4409893 -0.21875489 -2.020643 2.4423869 -7.428554 -1.7217344 0.20005707 1.8887833 0.18368451 -0.05760231 0.2528178 -0.28078642 -0.047799382 2.467869 2.5950208 0.85221684 -0.41381454 -2.894994 2.1916678 -5.579291 1.4592873 -0.7944812 0.92407906 -0.61153233 -1.9774457 2.7783492 1.638247 -1.4822985 -1.2253041 1.7598289 0.38368204 -0.5992708 1.4105887 0.14217195 -1.3656048 -0.19027664 1.1013339 -1.4576852 2.2758572 -2.1725976 -0.5937066 1.0723685 1.9717404 -1.3362566 -2.7665262 0.5850322 1.3524429 2.8456805 -0.8102355 -1.6161686 1.8093702 2.0056996 -5.6755514 -2.0773664 -2.9989164 -0.61848587 0.5875095 1.3616427 1.3701502 -0.1575021 0.74170136 1.8142316 0.97950345 -1.0773501 -0.3114259 -1.4527287 1.489002 0.6950314 0.79711485 -0.59229755 -3.6076744 -0.2112745 -2.0386755 0.0020863502 0.6638138 -1.8778032 -0.8635824 1.0309538 0.7099048 -2.9412663 -1.4925654 4.348327 -1.2949744 -4.098805 4.4949594
、 0.66559535 -0.50840014 -1.5501375 2.0810173 1.2368528 -3.8334742 -0.9809769 -1.8611879 0.037305426 1.3207656 0.16768049 -0.3764833 0.895864 -0.5860834 1.2984434 1.39848 1.7327559 1.6258321 2.286131 -1.7044245 2.425824 0.34491313 0.9228731 2.3333786 -1.3805168 -2.0237298 2.0467243 -3.00147 -2.8451302 2.9792008 -1.0457681 0.31048948 0.6200332 -3.502827 -0.45196295 -3.1914225 -1.1689966 3.038897 -2.9339333 -0.2566155 0.52122474 2.139767 -2.325627 -1.4178698 -2.054094 -0.5054803 -0.26206934 -2.0086718 1.3424888 3.275513 1.9614675 2.4057617 3.3256972 0.5085174 -0.077133626 0.20227201 -0.5349295 -2.409297 -2.1377048 1.5898596 -2.0358243 -2.9771292 -1.4346229 5.3081994 -3.0427089 -1.7193421 1.4300083 0.7393745 0.9998834 -3.0915835 -2.8010142 1.8163832 -1.0655274 -0.80902606 -0.7327572 -0.12719525 -2.1204274 1.853744 -3.3144708 -1.204203 1.2146914 -1.4492855 -2.3344004 -0.6853407 1.5522592 -2.4126894 -3.7641342 -1.5691106 -1.0580773 -3.0218832 -1.4977652 0.8683034 0.8086814 0.82222694 -2.7786536 0.4740378 4.056396 2.9446135 -3.4526417 3.034845 0.36895573 1.730012 0.8135641 1.6990536 1.408467 -0.52467173 -0.8553334 -1.865076 -3.0196943 1.3160328 2.3235614 0.97513926 -0.69665855 0.7761323 -0.8536109 -1.5764047 -3.8024447 -0.009777553 -2.8394186 -2.6876028 1.2132633 5.017501 -1.0298108 0.08855147 2.775813 -0.7873918 -0.43477044 0.21913053 -1.6400622 -2.416329 0.77716947 -0.77431613 -0.58762795 -1.6318598 -2.4079437 -1.1383252 3.7283096 -2.444634 1.7350199 2.4690924 -1.6897153 2.5859163 1.0804425 -3.0793288 -0.6700644 -1.050743 -1.3046203 -1.5799245 -0.65985113 -1.6393203 -0.39035872 -0.3944252 -3.4151213 0.5397019 -2.2435017 3.4640174 -4.326366 -1.6246829 1.0980788 -0.10020017 0.35187417 -2.7138474 -0.47227973 -1.2348465 -2.2555354 1.8546553 0.17746827 -0.37433782 0.6020026 0.1828281 0.18104987 -3.6969845 -2.1980958 -3.2657065 0.46889415 3.069214 -1.1451383 1.2239641 -2.2061925 1.2718959 0.17883675 -0.72870314 0.7214473 0.22483934 3.1009252 0.50150293 -0.9961266 0.108265825 -2.4560149 -3.0030215 -3.8334906 -1.0306621 -2.1782796 4.5227475 1.0496632 0.9416241 -0.2922322 -0.3768858 3.2556384 2.6270535 -2.478059 1.4060793 -1.2955172 0.2634436 3.447236 2.0509255 1.1573514 1.2903261 0.59346944 0.39543536 -0.0031413385 -0.75152475 -1.2607975 1.4038826 0.41055012 3.1942513 0.81573653 0.24572478 -0.15182748 2.277852 -0.79212105 -2.7672102 -0.6170653 0.4708294 1.488199 -1.7541478 -1.5108289 0.5910313 -1.5430346 -0.8433337 0.33049458 -0.5171721 3.36505 -2.0774007 -2.6692762 -3.24105 -0.6751333 -0.9029715 2.8037014 2.106483 -1.0730557 -0.31214577 4.190018 2.867086 0.16436756 -1.5347708 1.6829562 -0.31080055 -0.7087652 -1.852114 0.46925685 1.7497066 -0.5759058 -1.9633665 -0.45527482 2.1575027 -0.8760473 1.3913146 0.1918609 -2.9050722 -0.83810115 -2.3379762 2.086402 -1.5682989 0.85775095 0.27433726 -1.9455909 1.0970128 2.7778838 -0.5117141 -2.912758 -2.7361095 -0.699785 0.68205225 -2.3336399 -0.7707561 -1.1515603 -1.688407 -0.1610588 1.1599436 0.2600714 -0.7719529 -2.3952541 -0.035015523 -1.132285 0.16937819 3.250698 -1.2023957 3.6107638 1.7586399 -0.8522327 1.5208588 -1.5319626 -2.3697731 1.4988974 1.4083207 -2.0350146 -0.04601534 -0.60349375 -2.1972232
一 4.873171 -3.4337623 0.38684508 1.7704673 -3.0246599 0.7662749 -1.1174008 -0.9775789 0.869813 2.6807733 3.26913 -1.2094407 1.2598568 -0.030454142 1.8858124 -0.37234005 -2.901923 4.3670664 0.61806285 -2.5373635 0.2003143 -0.26374072 -1.0877935 -2.5613835 -2.0768228 1.6963931 1.0464967 1.8231925 0.91144073 -0.36970758 -3.4612885 -0.46131358 -0.6690167 0.0873933 -0.5209324 0.48805803 0.6353732 -5.468694 1.0757486 2.0068052 -4.560282 2.042989 -3.029285 -2.4934144 1.5422139 -1.8778924 0.7256677 2.082189 1.8783857 2.2423666 0.33681294 0.55990565 2.0068197 -1.7267032 0.07750854 2.8482897 1.8181977 0.10492554 -0.15939438 -0.7542052 -0.4923017 0.028626584 -0.9244881 0.6728375 1.74035 -0.28896412 0.81228256 -1.2037657 -4.776614 0.2583687 4.5178223 -1.3926581 -3.4892333 4.389763 -2.4558783 0.5963002 3.216177 0.15162915 -1.1625501 2.1529222 -2.870344 1.983005 -1.3010015 -0.75773114 1.7513834 3.277275 -0.4705717 1.0707315 -2.1988761 2.7168398 -1.9001777 -3.4907968 -1.754179 1.7030212 3.817969 -2.0495305 -1.8520436 0.08507285 0.72125506 0.37832147 -3.7821307 -0.055550996 -4.606404 -0.34320357 -0.40300548 -1.6645654 0.7409315 -0.06316769 4.195993 0.93518025 -0.34627154 2.3971956 -0.9511781 -1.1278086 1.584885 -1.8896439 -0.35552686 -2.707946 -0.45103142 4.3984084 1.2353612 -0.10164104 -0.16297565 4.429734 1.3966686 -2.4056861 -2.311453 -3.4326794 1.367399 2.7613404 0.17983045 0.5733468 -3.9243326 -0.8830065 -0.4790768 1.698025 -5.262568 1.4130572 -0.6572606 0.08044053 -2.665204 1.3068895 -0.9549011 0.2927842 -6.153461 2.37643 -2.595211 -2.196872 2.9129126 3.1498246 2.1515439 -1.3131486 2.8213758 -0.73595566 1.6768448 2.883515 -2.0167866 -0.5506022 3.1098058 1.2056922 2.889767 -0.41523957 -1.8459189 -2.4483612 2.1121206 -1.4899626 -1.7879591 0.8128849 2.026997 2.544996 0.31842646 2.5489423 -0.65303254 2.8242157 0.19864063 -0.72462773 0.21765338 0.0679847 1.35887 2.0105124 3.8868322 5.157886 -1.2820443 -4.7538004 -3.8151953 1.2800499 -0.42715275 -0.00959114 -0.86113757 0.4381233 -0.50164026 0.043335672 0.120647386 -2.051278 -2.1405277 0.77414155 0.40562838 0.9959296 -1.5128831 0.73734504 0.28816798 -0.7513121 -2.5561762 0.10417982 -0.7423288 -2.1885061 2.5522563 1.1163278 -1.0733598 1.6152065 1.3972104 -4.488007 5.601407 -3.5811012 -1.4526594 -3.891099 0.8816886 0.050356407 -3.6155727 -2.6950958 -3.0945752 -1.6968255 -2.6655626 -2.0185764 0.8185115 5.3425174 -1.0681026 3.536474 4.3859353 0.49886557 -1.7772418 1.8180299 -1.441462 -0.06354566 2.5167387 1.0571729 -0.41042784 1.0356338 0.67997426 -1.2804339 2.390607 -2.2455933 -0.52710176 -1.1606644 -4.780817 -0.89460486 -1.9979228 -1.8368613 -2.8351855 -2.3079789 -0.19813228 -0.8863591 4.2430677 -3.1091816 -0.8497878 2.5054636 -1.4688317 0.8410934 0.9131721 1.5937332 1.3626565 2.015013 -2.8080056 2.1605377 -1.3039839 -1.8165829 1.2022349 1.8535091 -1.9353199 3.248866 0.241737 2.4077642 -3.1155524 3.477071 1.6286033 4.389758 2.1622698 -3.104137 -1.2054267 0.99204 -4.199901 0.5528989 -1.3403274 1.9132401 0.78521353 2.963351 -0.8208888 -1.5217735 -1.0900959 -6.668898 1.6713039 -0.26260448 3.0973737 2.032987 0.5862283 -0.9284334 -2.2954197 -0.4762451 0.93691766 -1.7856798
在 0.55984116 -1.4640495 0.6967263 -2.314927 -1.0326976 -1.5134075 2.1359477 -1.0055904 1.1274537 -0.6267072 1.9291185 -1.2535274 0.39040536 0.40778217 -1.9209398 -0.19587108 -0.10360299 1.7572777 0.14882848 0.9757844 0.6223852 3.7994487 1.7268158 -1.2880992 -0.13608181 0.18959744 -1.8569914 -1.9053345 -0.38086972 -0.12893634 -0.11131024 0.69219315 -2.6878679 -3.1236553 0.32673675 1.3293502 1.66968 1.2289836 0.23037885 -0.10292119 -0.68713903 1.8888435 -2.1106033 -0.27998254 0.42744222 0.6515069 2.3388636 0.4968869 0.83155954 -1.2495452 -1.7316673 -0.91360235 -1.1761677 -1.8998228 1.4909018 -0.036965605 1.0253996 1.3096881 -0.33729997 0.31236577 -2.0271707 -2.189593 -2.878584 0.88373834 0.3330075 0.25330693 -2.0236242 -1.5306507 2.0273619 0.77461725 -0.1731616 0.9901747 0.17574178 0.42644075 2.9357188 0.85056233 -1.3513007 -1.4598572 -0.97244704 0.5585393 -0.24795467 1.8493786 -0.1558951 0.60189945 -1.5933332 -0.85332876 -2.769472 -1.5392703 0.17749986 -0.8556236 -0.14605947 1.9948756 -0.63446623 2.0277395 -1.5890552 0.12176956 -0.90107834 0.06861756 0.47766936 -3.4615424 0.01961581 0.5512292 1.2760353 0.32642105 -2.2594066 0.40618914 -0.75359625 1.8804191 -0.53706074 1.4057522 0.018788002 -1.1482025 -0.93561345 -1.0169309 0.932362 2.3985484 -0.46554136 -1.736379 0.96923524 -1.7562853 -1.5258282 2.0000947 -1.4809098 1.3165534 -0.33110788 0.822286 -2.2823224 -2.5102928 -0.0093342895 0.6223552 -0.18226483 1.0508009 3.452795 2.3412282 0.051408127 2.530822 0.62116927 -1.2305179 -1.5657576 -1.1942087 -1.5660585 -0.9613691 -0.5140776 -0.20199421 -1.9022493 0.02586298 -0.6235211 1.0939245 -1.9913787 -0.07337104 0.63240576 1.7765034 0.83856916 1.743773 -0.6755821 -0.5516607 -1.2581158 -1.6761333 0.3479474 0.7241357 -2.1927774 -0.13719335 -1.1826197 1.5963726 0.23442058 3.2223902 -0.00861111 -1.2512307 1.1700741 0.43711078 -3.1180027 -0.82456946 2.7928264 -1.0942602 -1.1804429 1.6514164 1.1164542 0.80230165 0.84396917 -0.6109154 -1.3666973 -0.83096075 1.7013987 2.6219068 -1.2490028 2.3321638 0.9912947 0.7271149 1.2627637 -3.5068383 -0.42326808 -0.508681 0.6733006 1.1458406 0.90012246 1.0712494 -0.7021294 -0.3330589 -1.1055688 -1.3089474 -0.71246207 -0.24080136 2.1598566 -2.0258842 -0.5119158 1.3788991 -0.2612682 0.21503878 -0.061665334 0.6575806 2.4453936 -1.070139 1.0488645 -2.0746262 -3.9834325 -2.4448898 -0.21321085 1.4845198 1.1162442 -1.9602067 -0.24637471 0.27471507 -2.17489 -0.38533798 -0.1458808 1.5794632 -0.08213084 0.7444046 1.6388811 2.1514497 1.3789259 0.9724931 -0.101518296 -0.24798103 -1.0365977 1.6269207 -0.28292447 -0.026400438 0.4302124 -1.0076357 -0.8193383 -0.14889784 0.6241001 -0.5572104 -1.0746598 1.452135 -0.26716343 -0.95433027 1.4625659 -1.0463933 -1.5293533 -0.86829346 0.41457263 0.5018189 1.3404179 -1.3116885 -1.1984532 -0.7894089 0.47595683 1.6269281 -0.8136448 1.140818 -0.7596452 0.88231087 0.071021505 -3.0817716 -0.6692096 -0.17094205 -0.48064664 -3.133321 -1.6488287 -0.3489602 1.062502 -0.19012354 -1.793015 -0.100424744 1.4983693 -0.9285215 1.2122632 2.595906 -0.47031078 0.76795375 -0.59230804 -0.8983087 0.46579435 0.46168968 -0.060251087 0.7615426 -0.021427741 2.7601964 0.29359588 -0.10376742 1.7121671 -0.39675948 1.2156003 -1.8942354 1.2236775 -1.5001054 0.3212346 -1.6066979
为 -0.6912845 -1.9780418 0.08606981 3.1183825 0.551119 0.41880164 -0.13823982 -0.8423982 1.488178 0.89636785 2.2883847 0.18997669 0.5843124 3.1002965 -0.36804083 0.8984569 -0.8847208 0.2263927 0.6171958 -0.9293082 -2.7119899 -2.547629 0.35868227 0.047801867 0.19825356 1.3695544 -3.616047 -1.7871665 1.3506144 -0.9102083 -1.829747 -3.0529256 -1.5591159 -1.5806726 1.0720667 -0.2995412 2.2956343 0.26341096 0.16626327 1.8776994 0.47736087 2.173835 1.5089734 -0.7007524 -2.925228 1.1556896 4.5720544 2.8060064 0.008264277 0.41827363 -3.3575466 -1.3975568 0.15534319 0.3286036 0.13271931 2.6940587 -0.48859146 1.6492499 0.55603707 2.2695835 0.65966594 4.4156046 -3.5045652 2.8652246 3.786095 0.8277592 -0.91796565 2.9053104 1.1463739 0.23754466 -1.5163975 -2.0766897 5.548668 -2.93324 -0.8574595 -0.39923573 2.8690627 2.296581 -1.6887357 1.3155806 -0.62084556 -0.5305734 -0.56983787 3.2049053 -0.013064499 1.1611164 -4.323305 -1.6889733 -4.284424 -1.6464295 -1.681489 1.4721695 -1.8785986 -0.024211887 1.3864836 -2.3704145 -3.1891243 -3.1434455 -0.23728178 -1.3815336 -1.6086571 -1.098075 0.49906576 -3.676491 0.29355317 0.69169205 0.52053845 0.087382555 0.26780906 1.4168075 -0.17503737 -0.13843992 1.2863289 -0.60273814 1.9898615 1.519649 -0.26773542 0.43746835 -0.7541458 0.7485675 0.4944123 -0.037026796 6.7573433 1.2235539 -0.26798442 1.5903429 -1.153509 -0.75140715 0.6572335 2.62014 2.6988952 1.0210081 -1.6822677 1.5007997 1.5805067 0.8771559 -3.030088 0.39130586 -0.41449603 -4.0671206 2.3605614 -0.30082998 -2.6188931 1.09894 4.0029597 -3.816827 1.3922987 2.1208677 -0.27892384 0.32929876 -3.542121 0.50667083 0.39230722 5.3214655 -2.2013059 -0.14553879 2.5572698 -1.044987 -1.3673958 -3.2161417 -3.7906296 -1.6546218 -1.6431786 5.713393 2.3036609 -0.78289163 -5.3641267 -0.68177366 -3.1029062 -1.9183909 3.3122294 -6.380411 -0.60959244 -6.21177 0.2190834 -1.1459514 1.0919775 -0.22086197 2.121323 -3.5410366 -0.8908597 -1.1650776 -1.2077785 0.1372892 -1.4908503 1.8073404 -2.0784492 -1.8726113 0.87911373 -3.5082624 -0.7652119 2.1583247 1.4901453 -1.0501803 -2.1422358 -0.073393956 -0.13993278 -5.3582134 -1.4319043 -0.51581085 -0.1874528 -3.3972156 -0.55984074 1.5477253 -0.69235635 -1.3402011 0.092705786 -0.7021162 0.369956 0.36163932 1.0972146 0.048506252 1.6248674 0.06411116 -1.041964 0.5444408 -0.41752324 1.2978853 1.9532872 0.05898512 1.9618167 -3.1264899 -0.55942696 -1.9870453 1.5941669 1.6339984 -0.38400322 0.2969226 1.3943628 0.9455003 -2.6438577 0.59386873 -1.0967546 -2.3650615 0.4586976 -2.919689 -1.4592245 0.09399342 4.844984 1.229007 -4.725197 -1.3089151 2.355934 0.8519315 0.077670515 -3.4052365 1.5096195 1.9775181 -1.7377148 -5.308362 3.4758606 0.29180816 -0.7390352 -0.3870113 0.2234658 -0.92779243 -0.91571933 1.4508935 -0.79949373 0.81986403 -2.1617694 -2.885748 -1.9511278 2.540773 -0.27310994 1.5446966 -1.0921751 -0.16191632 0.36630547 -0.08734055 -1.8672495 0.550151 -1.3223332 -1.359625 0.2951171 -0.29986027 -0.9292602 1.3493059 -1.6315285 0.3841486 -1.9396728 -1.4220653 -1.5345672 1.4614956 -4.6683197 3.1483715 0.15835372 0.6753894 -1.2636155 -0.26195887 -1.4553449 4.326203 1.6853503 2.8188658 2.6234245 -2.2352524 -1.4087833 -1.1100866 -2.2889595 0.9655257
是 0.11782463 0.7242161 0.20007809 -1.2582113 1.1985178 0.6609861 1.7988024 0.9166997 -1.06783 2.9952483 0.39483166 -2.3999794 0.6728678 0.49209595 -1.757368 0.39483896 -1.1393886 0.87685406 -0.050474457 2.3399699 -0.6373834 0.6772039 2.2365303 -1.9990649 1.6680171 2.2760296 -0.049486186 -2.0876253 1.311303 0.9647926 1.4695556 -0.84398264 0.17696656 -0.79930884 0.46607673 -2.68918 0.11073377 -0.37307346 3.899031 -1.2195846 0.6950285 1.4126332 1.5677322 -1.0906836 -3.9136143 -2.702337 0.43597922 3.0766573 -1.7476069 0.07511815 -4.6682415 1.1057742 -1.0058752 0.35280687 -0.165077 -1.2146828 2.9772887 -0.4461992 -0.49804997 -1.972175 -3.5057678 0.7127416 -1.6727523 -2.3966763 2.231451 0.9267022 1.3601625 2.1672246 -2.4729977 0.010154615 -3.492392 2.278491 3.149806 -0.6473792 1.4884826 1.5224988 1.4263426 -1.897544 0.7241538 -3.9219081 -0.9396774 -1.8161776 -1.1096764 -1.0867678 -0.96597284 -0.62603825 0.68810827 0.29383516 1.3119205 -0.21168259 -1.986666 1.3505234 -1.603487 4.2764845 0.07571983 -1.7639287 -1.5837756 0.13961813 0.44208017 -1.7259735 -2.382729 -0.6399438 0.043046627 -1.6680263 -0.34349257 0.597333 -0.79581624 1.555936 0.1644026 -0.84166825 -1.335684 1.6389762 1.3971709 -2.832398 2.14474 2.366899 1.1880528 -2.208712 0.9643678 -0.67971385 -1.7012881 -2.0764396 -2.0863907 1.7456874 1.6550581 0.7421841 -1.7211609 -4.4076395 4.489695 0.35823497 -0.8995436 0.54983747 2.655697 3.8247178 -0.81850207 -0.10843329 -2.1974444 3.7168665 -3.3556967 1.385696 1.7826962 2.3819535 -0.48928836 3.9743128 -1.3760988 -3.1206832 -1.2878387 -1.1182507 1.9222283 -0.23002326 -1.8806742 0.20257851 -0.05976106 2.0059552 2.0241652 -0.4587333 -0.67884094 0.40493336 -0.24886797 0.43771532 3.1041372 -0.72042066 1.5343086 -1.3477445 3.3834157 1.4817814 -2.2601225 0.93915904 2.1158624 -2.5794313 -0.5330642 -0.050895743 -1.7488637 0.7365401 1.0013435 -3.7692158 0.29733717 -0.0019897057 1.715163 -1.4464327 -2.452984 1.6570404 2.351814 3.2336626 -1.5329478 2.086221 -2.120016 0.06768041 -1.2311761 -1.9121101 -2.3765628 2.7175016 -2.669232 -2.696301 -2.414826 0.90059257 0.19520688 -1.0553043 -2.6010616 -0.5001781 -1.0478977 -2.2755854 1.520085 -2.4120586 0.36633226 3.2977574 3.283079 0.015583059 3.0302186 -0.94970423 -0.12345598 -3.6864467 -0.6231117 -0.7115084 -1.486614 1.9456357 -2.2344203 1.8148421 -1.7218432 0.117969126 2.8274388 -2.7685928 0.6830304 2.2207108 2.820729 0.45907912 -0.13784654 2.2613657 2.0290592 1.0624264 0.04172516 0.7638062 1.4321619 -2.2684197 1.9885639 1.0569718 0.45931295 1.6777389 -0.13083176 -0.13149375 0.19188423 1.3544579 -1.1502942 0.42152408 0.9142158 -0.66736895 0.7550581 -1.6866297 0.48180866 0.3024032 -1.4642085 -0.042218093 0.5355404 0.15016547 0.87813246 -0.75573796 -0.50790054 1.3271357 0.66999894 -0.22908457 1.0772947 0.54946274 -0.0047877072 2.110076 2.9196362 -1.8188201 3.9366422 -0.07473642 2.9636617 0.8381694 -0.3684544 1.6493413 -3.803225 -1.0316261 -0.8392348 0.5258433 2.836042 -0.017857054 -1.5320247 -0.7589913 1.0465026 0.9207231 0.30888024 2.3339405 -2.0874026 2.4532952 2.5215707 2.45497 0.5430645 0.86356276 2.40247 -1.1219006 1.6550841 0.17878532 2.590763 -0.8284729 1.4955558 -3.8365402 2.8236003 0.6389984
中 -0.58159953 2.1631799 -0.9901554 3.5784001 3.7948298 3.4457574 0.7499875 2.0403926 1.2009209 0.6532641 -1.1322826 2.7125614 1.6833901 -0.6118103 2.1949441 -0.8614637 1.5432241 2.9030893 -0.34608382 -0.28648826 0.71715903 0.10024798 -1.0463719 -0.6378941 0.9804596 0.57562613 -0.39707148 1.3571612 0.3037376 -1.3127304 1.1377387 -2.014351 -1.9523776 -3.469271 -1.0447166 -1.7301934 -0.09364993 -0.20823193 1.5340179 -1.311433 0.8249826 1.0022057 3.6892095 -0.4630896 0.5353485 2.1891057 1.5545757 1.149149 0.029649159 0.30034995 -0.19388515 -1.5283289 1.9870664 0.96463025 -1.5198941 -0.102559544 -1.8478876 1.9242162 -0.9893949 -0.6963528 0.61707824 -1.2585433 0.9942536 0.37899697 -2.0029457 -0.23696837 2.6961467 -1.8177984 0.35273284 1.3808922 0.7314267 -0.7278454 -0.4466877 2.5591724 0.5565601 -1.2256961 -1.8327999 -0.4817162 -2.5297241 -1.5613663 2.3675256 -0.16556218 -0.35192475 -0.89912486 -0.15622835 0.28664014 -0.053743713 0.87005204 0.32896772 -2.917011 -2.1184068 -1.1821647 -3.6659718 3.3922265 3.2741683 0.46377096 -0.046649262 2.7225018 -0.32869348 -0.6237864 -0.48366883 -0.4543256 1.7960484 -0.8484133 -1.5847709 2.8791182 2.8485293 4.277986 -0.77188134 3.3877308 -1.4380343 -1.7713157 0.426155 -0.5477682 -4.2888865 -1.7761544 1.9912548 -3.3608685 -0.85587764 1.4449285 -0.14160389 -3.1057382 1.0710589 3.0750525 -0.3192867 0.23289795 0.052132957 0.46529347 0.3813064 0.86544895 0.201021 0.9968462 -1.6491838 0.23958793 1.5090321 -1.5748336 3.0338812 1.5978811 0.48982018 -1.4455242 2.8721244 -0.57319736 -2.5283794 0.2742082 -0.60586065 3.0030453 1.9168537 0.68225396 3.5888839 3.8624153 0.5489044 -0.68447673 -0.70536834 -3.403872 -3.3315752 3.9884746 2.834894 1.5901308 1.74045 -1.954397 -0.9198194 -0.6269892 -0.6789018 0.061102863 3.043023 3.7947373 -0.038448133 -0.87430626 1.0040128 0.36358282 2.0916061 0.95061696 -3.5372026 1.1365327 1.0053773 -0.0055386187 -0.4908753 1.5499231 -3.0602362 -0.8200471 -0.9691003 -0.16738082 1.7992176 -0.7951446 -2.3307562 -1.3755294 -2.6130047 -1.3598447 0.30977586 -1.595488 2.2457232 0.7960267 1.7868074 1.8945686 0.1359246 -0.9572465 0.019860588 -1.0689893 0.13839406 -2.9928548 -3.0236104 0.31466812 -1.1056876 4.587729 0.2062031 2.4025195 -1.6785679 -2.5155938 -1.0074304 -1.3779354 1.259455 1.5629014 -0.026379336 1.2328236 2.5112045 3.5593445 0.64211595 1.8178502 -0.51031864 -0.49248892 -0.33034548 0.25450963 2.3784297 -2.1675353 1.9825718 1.7532942 -2.489366 1.2328453 0.5858091 -3.7309275 0.5168734 1.1858057 2.4455304 -0.6583864 1.7068489 0.45192778 0.9468581 1.1721067 3.0656142 2.9898493 3.2346857 -0.3647145 0.4861785 -1.0835435 -3.985393 3.5286229 -2.9662926 -1.4628754 -4.2217474 -1.7500944 -1.5180709 0.6892815 -0.29309353 -1.2139919 0.72418886 0.82751495 -1.2632345 2.2536027 -0.74688643 -2.495049 0.49341246 -0.2174182 -0.98707587 -2.0717633 1.8962818 0.24098432 -0.86209846 -1.7790092 -1.4107469 1.7484373 -0.93971974 -1.1615251 -0.43002272 2.0628088 0.42971754 0.90299433 0.92486036 0.35084203 -1.7628071 -3.17536 0.10295036 0.786104 1.8271575 -1.0036119 1.799648 1.420675 1.0632615 -2.9248352 1.6083531 2.1162117 3.3104086 0.25463724 -2.7101884 1.606839 1.2784847 3.3305054 -0.20159176 0.5755481 -2.5843122 1.9524872
9 1.796294 2.5159812 1.8222864 -3.5382116 1.9900343 -0.23087679 1.034206 -1.0183022 -0.32181224 -1.5244654 -0.92645025 0.43739468 0.19116583 0.25509533 -2.2254663 0.7011721 3.4046323 2.3261561 -1.4594427 -2.2399695 0.030648783 1.1722236 -4.5738606 0.10605877 -1.4358958 -1.6349396 -0.30495203 0.17067307 -2.6836696 -2.6113598 2.699632 2.7312114 -1.2142204 1.7587779 1.2610009 -0.4855851 0.9029122 -0.73503524 -0.1960409 -2.5191236 -0.29189923 -0.4743876 -3.0593555 4.046854 3.4412763 1.2511569 -1.5844516 -2.8024387 -0.29592767 -0.9600509 0.51987404 -3.38323 -5.3260345 -2.4554045 -4.375915 0.36299244 -2.1967099 -0.0498429 3.1957304 1.1414889 1.8635503 -1.7248712 2.8253644 2.0068245 0.18562797 4.8581586 -3.4635856 -2.5004323 1.1969271 -1.2760671 -2.1628385 -0.8352335 0.45719174 0.7175975 -0.49975076 -0.8496849 -1.5438567 0.67661226 0.732019 -2.2178152 0.9717689 -0.70355254 2.7447057 2.3302834 0.53905815 -1.3265363 -0.40369368 -6.097467 2.081613 3.2587636 -0.33790004 3.0395603 -2.563534 -0.24901001 -0.5950014 -0.66177565 -1.4261945 -0.99078333 4.9538045 -0.28401023 1.2154944 0.12436934 1.9191202 -3.1529596 -2.930293 -0.31539744 0.9204467 2.721342 -2.9477572 1.5947975 4.719158 -3.0061111 -0.09204404 3.8073964 0.38972414 -0.6748132 2.5115023 0.6512644 -0.781333 -4.042473 -1.842174 0.6347443 2.515143 -1.0007949 -0.1476779 0.31651714 -2.7010894 -1.6308933 -4.749677 2.4325004 -1.2231061 1.3062387 -3.3913825 2.9813943 0.9656517 1.0844164 3.6251557 -0.01790112 1.0401038 -3.2837381 0.37489638 0.45838872 2.2519271 0.2684062 -0.5408809 2.3432627 -1.7510986 6.7061896 -2.297502 1.5721362 1.511023 3.4389405 -0.09566252 -0.21510795 -0.16864839 -3.2630472 -0.53370243 0.21751796 0.21321279 -2.2939389 0.87463844 1.6914552 -2.9910161 3.5453184 0.87053055 -0.8442969 1.0758419 -3.8457196 -1.4431343 -1.0764008 -4.1197944 -0.91882676 2.6390493 0.33174577 -1.1997441 1.6372142 5.165276 -3.8631673 -1.4754424 3.2490227 2.6035264 -3.240513 -0.6871911 -0.028728718 -0.20987687 0.22745574 0.3108551 3.380726 1.9401467 -1.3137001 2.9824874 -1.5395385 -0.14743584 -0.004251426 -2.135026 0.4546866 1.0196743 2.3368502 1.6105332 -2.1868749 -1.8516724 0.059814878 0.36195666 -0.72429174 -0.519669 -1.3677279 -4.1835656 0.5266844 -4.31537 -2.3091576 -1.8884184 -1.6877456 -6.468678 1.011 2.7598414 -1.0440794 -0.18637921 -1.331175 2.4927964 -7.354285 0.43704554 1.2971457 0.93634224 0.22116043 -1.79468 -0.116577014 1.5549461 -1.5862547 2.5808337 1.8386207 0.66166186 -0.80761737 -2.4647126 2.0675442 -5.7945733 1.5756295 1.0879629 1.1517464 -1.1544102 -1.3284849 3.049949 2.3694994 -0.9187961 -1.0854015 0.98961735 0.73975956 0.52145565 0.93536425 1.1621321 -0.932009 0.1929828 1.9056687 -1.3145078 2.556658 -2.1382325 -3.5630176 0.0942125 0.22092111 -2.4682903 -1.856442 0.27013385 2.2080383 3.6099718 0.33674154 -0.54549503 2.5884986 0.29164523 -4.9412003 -2.0171216 -3.3550308 0.74200416 1.2205797 1.5217077 -1.1207073 1.2427313 -1.0637511 3.344961 2.0401711 -2.3501163 -2.1082892 -2.1495917 0.18874367 1.4188852 -0.287389 -0.75035506 -2.290501 -0.14456654 -0.8408122 0.29230332 1.7100865 -1.124137 -0.69438577 0.67015254 0.03944369 -2.957794 0.16940533 4.2289 -1.1657676 -3.896943 4.7182083
国 0.26504645 0.4459182 4.315052 1.8145198 1.1739306 1.3105603 2.1548007 -0.06017743 -1.1735623 0.109552294 -1.4388161 0.6666268 4.421514 1.0901705 -2.7334516 0.90355104 0.5084465 3.1907878 3.1629386 -1.2737116 5.562483 4.824596 -0.595589 1.3617338 -3.9124231 -1.5892783 1.0670834 0.8682652 1.3144714 3.6824243 -0.6688572 0.31598514 -1.7260104 -0.91869944 2.88269 -1.2510397 -1.6560854 -4.82442 -1.8446647 -1.8285439 0.5546957 -1.3605787 -1.9788855 -1.8290563 1.2056261 -3.2450683 -1.2634524 2.3005373 3.8087351 -0.93199635 2.2175734 2.7123234 -0.93871176 1.9599757 1.6089807 -0.6405525 -4.5098147 0.6155154 2.461701 -5.2156496 3.2693594 -1.6925513 -3.2803833 0.1122995 0.09208161 -0.43506515 -2.8477104 -2.8163753 0.4430539 2.14647 1.5457162 -0.36318696 -0.8768356 -3.850243 0.99149215 3.0027215 -4.144763 -0.27879843 5.7048874 4.4179797 -0.9837957 -1.9789085 -1.1778299 -2.0106463 1.5604011 -1.9589392 -2.0047297 3.311911 0.5049798 2.469555 -2.0406084 -0.32325378 1.6467627 2.1367064 0.4966841 -4.1221156 -1.0797026 -2.681475 -2.2299876 0.913142 -1.1809286 0.2021478 1.5198921 0.42056686 -1.3712175 -2.6761436 -1.6597806 -3.3136156 -2.588615 1.1029145 4.7851934 6.1340938 -2.9509027 0.6769844 0.6020273 1.0401667 -5.3274646 2.6997313 2.4330075 -3.8851383 5.268024 -0.70456433 -4.8704085 -1.3939368 2.422119 0.504829 -1.4335649 -4.9855914 -0.1102418 2.6970618 0.12935945 -0.7424076 -0.64174426 -0.97928077 -2.00177 2.7509053 -0.16885103 -0.79520416 1.915139 1.4570818 1.6318704 -0.771837 -1.5600197 -1.0189039 -0.3356926 -2.3610463 4.300387 -0.30110022 2.2405097 -0.80796736 -0.72677195 0.76227206 0.5127022 -1.6945186 -2.896283 -0.9723895 -3.6028302 3.872696 -1.3689384 -1.676624 -0.47212416 1.4386175 2.7286234 1.5673519 2.287895 -1.0192719 1.1143262 -1.5740694 0.3122531 -3.8343558 -3.4091356 -0.04496853 1.9024733 -0.5171056 2.8524795 2.8246112 -0.63713956 1.262672 0.5405711 1.9880924 -0.06649484 1.9199352 -4.4939413 0.5322232 3.4675448 4.3191094 -0.14262699 1.8492117 -0.10049501 2.0615141 -4.9029183 -0.3059553 -2.5690205 -0.94154334 -0.42577413 -2.2564209 1.4839364 2.0280468 1.2148857 0.33365613 -3.3454447 -2.0314867 5.241734 1.1772797 -2.0250478 -3.1163683 -1.3016865 -0.4207981 -2.8135421 0.9721687 -0.23376542 0.925763 1.5729814 1.9536844 1.4984841 -3.0192313 -1.7132912 0.48246992 -0.48170644 2.5159502 1.3979706 1.9773037 2.7104557 0.7491758 -4.2959023 3.1319344 4.1069713 -1.3265097 -2.3902872 0.7151301 -1.6227074 2.6118731 3.7404897 -1.8552452 -3.7502253 -0.15845633 -3.313613 -0.11580621 -3.0072744 -0.9813564 -0.08206282 0.05963391 -1.2718267 -1.3258748 0.36893192 -1.6969066 -0.8758071 -1.0172617 0.101492055 3.235365 1.8246702 1.868043 0.09166896 -0.48129532 -0.2530236 -0.11007447 -0.8497554 -2.6171386 0.5020775 -0.5102621 5.4141436 -2.7147005 -0.40820065 2.2662675 -0.7944323 1.819414 0.18478847 3.7999058 0.69505966 -1.5970666 4.6260114 -0.67918754 -5.150971 -2.1387095 2.689613 -1.0597038 -0.7553971 2.982379 -2.2411199 4.10068 -0.90147173 1.1007909 0.79177666 0.9255606 -1.2999849 -3.0476124 -1.0614223 2.094918 -4.298641 3.0895002 -6.8676615 2.621859 -5.033204 -4.25356 -2.2273855 -3.0269506 -0.61717033 2.8276567 -2.7387712 -2.3686726
人 -1.9339281 -0.63881904 -1.0040363 0.71162117 0.7909591 0.5339175 -1.4328713 -1.9344399 -0.36688352 -1.5192631 -0.0064182836 0.39277512 -0.03364347 1.0323734 0.95163655 1.745147 -0.8959159 1.4085648 -1.4163315 0.72265315 -1.0112956 3.552488 1.225521 3.8857641 1.5054364 -1.1591074 -3.315209 -2.4996312 1.1802561 0.4800737 3.6941702 -1.3568156 0.4133578 -0.6776449 -1.8176414 -1.5532674 0.055781394 0.19857803 0.2608284 -0.79137516 0.6557238 -3.609837 1.3286282 0.22401792 -0.18688808 0.29917157 -1.5904833 1.3142656 -0.3465178 -1.2683209 2.535217 -2.8201778 1.0945235 -2.274886 -2.9997377 0.4883237 -0.20465618 3.3702505 0.9986301 0.1402981 -0.5116366 -0.7781137 -4.3590293 -0.0917387 -1.2011495 -0.2969222 -0.01005559 2.7974627 0.6918117 0.30045703 0.27751344 -0.5619282 1.5526286 -1.5239329 0.6185282 2.4821572 0.17753807 1.0308061 -0.086572625 0.27547255 -1.0301858 0.2725296 -1.292617 0.5970294 0.53540635 0.44282743 -0.6384628 -4.2192554 -0.4547221 0.7202917 1.6825074 1.3062608 -0.25464237 5.2977667 -0.18606597 0.69435894 -4.9778647 2.8667586 -4.317213 0.8063674 -1.7921133 -1.006609 0.96762264 -1.6993618 -4.888756 3.6890335 -2.5257952 -0.46825886 -1.5723088 -2.999592 2.1863198 0.8965156 -1.2908124 -0.8021972 3.443293 -1.5957675 1.59109 6.1701245 -0.8191892 0.67595315 1.8578638 1.6518998 0.21430251 -2.5651875 -0.8827776 -0.7223043 1.594775 1.1315607 -2.641443 0.8017169 -0.36370745 1.9047441 0.34822977 1.881873 4.4680147 4.274729 -0.2863304 1.3106155 2.024058 -0.9100345 2.079456 -0.6480101 2.6090052 -2.1824105 -1.6358901 -0.7844242 -0.2307645 -3.6154168 1.6724842 1.4882227 -2.4270663 -0.6751415 -2.285572 -2.131692 -2.7101073 1.2442429 1.2146208 -2.0164967 3.0001872 -1.9985313 -0.22946987 1.2508624 1.9459138 -3.2714944 1.3780454 -1.1975498 5.1730876 2.0442822 1.6857648 -1.2190329 -1.700959 0.7348749 -1.8152211 -1.4166542 0.050932337 -1.5776539 -1.4178962 1.9404175 -1.0350817 -0.15642393 -0.4796644 -0.6998296 -2.5947719 -0.7251957 1.8899087 3.7228894 -0.3774044 -1.5033498 0.7146888 2.5559971 -0.3091528 3.7631147 2.5466328 0.24881175 -1.0651796 2.8557913 2.8358765 2.1015754 1.5119013 -0.6146261 1.3107783 2.9837873 1.8622673 -0.29127023 -0.60841095 -1.4828552 0.11513251 1.9077559 -0.6255489 2.874363 -1.9760942 -1.9822781 3.0226784 -1.0884343 0.8243629 -0.11766136 1.4776425 -2.5674696 0.82941914 1.4470118 2.368618 2.4791484 1.1899027 -1.0123994 -0.03735941 -1.1473179 -0.34389526 1.720386 0.4079885 1.427954 2.1376429 1.932372 1.0094346 -0.7569021 -1.2965237 0.1404622 1.5028176 0.78563523 2.16624 1.3084285 -2.1926813 1.2355368 -0.605723 2.675469 -0.07698376 -1.8626355 1.4969013 5.2778444 -1.5505884 -1.2508731 -1.1773434 2.5953455 0.9218209 -2.2921581 -3.7204278 -1.7219658 1.450189 4.0268283 1.4450991 -2.5890775 -2.2614005 -0.15562539 0.42569202 2.2900858 -0.20282643 1.8219581 2.1702049 -4.2365184 -0.582921 2.4552562 0.963745 0.66739476 0.721202 -1.3347504 2.1492884 2.8580275 1.935456 -0.44895262 1.989856 -2.9978213 -3.8749294 -0.4889697 0.15296961 -0.6992323 -1.8812268 -2.2974534 -0.6557581 -0.3680788 0.88360006 -2.2255492 0.4260516 -0.9417848 -3.6109653 -2.630908 -0.17111205 0.7629221 2.3751514 -0.07609736 -2.0307589 0.95953137
（ 4.2527146 2.8884702 2.7398753 -2.1459012 1.1742275 -2.2156847 0.062239617 1.6519053 2.142909 1.7070788 2.6948392 0.8907774 -3.1234663 1.4770685 -2.58195 2.911477 4.9181733 -0.67120266 -2.356647 3.3485904 3.1899557 -0.5583134 5.442267 0.5423801 -2.786273 0.34925184 1.0964867 -3.074787 -3.8721464 -1.0263653 2.0346532 2.061543 -0.5142951 -4.6639156 -2.074379 -4.01379 0.00069022534 3.670633 -3.1149056 -1.8759024 2.1390889 3.7107809 0.20215318 0.8342462 -3.7554924 -0.60522455 0.086521 -0.15760353 1.3450963 1.3079957 0.93435454 -0.9682638 -1.8862091 -1.3810214 -1.7658925 1.0874566 -0.15997957 3.0637817 -0.21858387 1.9172153 1.6082313 0.19348213 -2.1918695 3.039408 2.7404027 2.1234267 2.7086875 -2.9740934 -0.92998 0.3235395 -5.43727 4.8769093 0.11486587 0.93740004 1.2728139 2.9086103 -2.5376875 1.1534156 -2.2048821 -2.3565803 2.2360861 0.2995586 1.4830945 0.543479 -0.4408587 -0.9073671 -2.5312753 -4.8015933 -1.7124141 2.5408823 -4.555097 1.0574054 1.1117853 3.1654031 -5.8265634 -0.25887242 2.2377818 0.47857797 -2.1288173 -2.0171623 0.86752176 2.5316973 2.3967063 -1.2468783 0.7134388 2.2959378 -3.344867 -0.82726127 -2.54291 0.38391027 3.2580078 -1.5524889 1.029063 -1.0190842 1.7340856 0.51847166 -2.4147558 0.38614327 -2.2626183 -3.7745106 -1.6620613 2.495857 -3.2714562 1.0181059 4.131492 -0.04523555 -1.0658886 -1.3976364 -1.3269365 -2.1541603 -3.2595067 -2.25501 -4.369049 -1.2715636 -3.9294138 0.13541915 3.2289515 -3.2877805 -2.6025975 -0.6055426 -1.1082549 4.1367526 -2.3238568 1.198342 -3.5862045 -3.3748765 -3.8342981 3.3975117 -1.1567782 0.5694018 -0.9256636 1.5281384 -1.2199738 1.2910644 -0.44375932 1.184113 -3.599714 0.8081074 3.6715424 3.2431843 -0.5730275 -1.2867565 2.6179574 3.1743453 -2.0887635 1.416077 -3.9032314 -0.93690485 -1.722504 -0.29289603 -2.8106334 1.5015409 -0.03241086 -1.9560857 0.40894663 2.567746 4.02092 2.5368638 -3.514023 -0.42347643 2.3750067 -2.13178 0.6458132 0.17024837 0.15104766 0.36347848 -0.08279557 2.3689342 1.0255517 1.4030762 -2.025365 -0.22436099 -3.0512433 0.0673294 -4.8041916 4.3121147 -1.2633696 -1.4171604 4.4920254 2.305776 -2.9730186 -1.3451675 1.0750176 3.1257243 3.6322944 4.1159344 0.7717258 -1.8278409 2.1466372 -0.4400075 2.1883411 -1.6334178 -0.66959 0.13699831 -2.7803833 -0.73374957 -1.9007931 1.3417269 1.4039923 -1.197922 -1.3524191 -2.3451898 -0.88999784 5.0336943 1.7017678 3.5801723 -2.8177705 -0.24998307 1.6227834 -2.2993598 -0.43863007 -3.993052 0.21699312 -1.621757 -0.2968217 -2.2453787 -2.4111238 1.5811628 1.100215 0.23287056 1.4858594 -3.480548 7.2900515 -1.6310935 1.0264702 0.046541363 2.5902426 4.236635 1.8029155 -1.0346576 1.4224368 3.68131 0.07966353 -1.7271355 -1.859078 1.417516 -3.3052273 2.0287957 -1.4514312 -1.0203327 0.1404103 -2.4947045 -2.9336808 -0.8620002 2.4359748 1.8237393 1.3103433 3.956501 3.386656 2.7313237 -6.456346 -1.1480758 0.5912869 -3.769614 -3.0249686 1.4680637 3.036445 1.6040146 1.5176891 -3.7009392 4.2793274 -1.309672 -2.7696292 1.2395338 0.9391737 -0.1450629 2.65617 0.48562866 0.9277462 0.7134215 0.08976082 -1.6281877 -0.47831786 -0.8457082 -0.849094 -3.2230299 -0.57932734 0.59564066 -1.4930103 -0.9359679
） -2.0608969 -0.9173362 -2.8523786 -1.8062968 -0.49347377 -0.71511936 4.499745 -2.2367787 1.3403716 0.27271482 -2.81372 -0.26932997 2.1991906 4.7337227 0.12848538 -2.7810676 -0.8338093 0.9119093 0.8304669 0.4435645 -0.6117791 2.2885542 -4.1331244 -0.6718342 -0.7096244 2.4852126 -1.7591718 1.954204 -0.956517 -0.09613956 -2.0777142 -1.4109014 -0.54489774 2.6616237 2.412141 2.8404233 -0.577393 -3.2779589 1.64486 -0.41546276 -0.47300354 -1.464171 -2.1502738 -0.08635989 3.7044106 1.9293244 0.23342639 -3.1608224 1.4539789 -3.6740499 -1.3341181 1.4300727 -3.0962389 -1.6091464 2.2594898 0.12829788 -0.41919112 0.7401631 -1.6393363 -1.6289613 1.0115488 0.26859134 1.0749191 -0.9896899 -2.6835184 0.33830252 0.9846505 0.8091948 -3.005345 -2.8216205 -2.6345892 -1.3617681 -0.57682484 -1.2436997 0.31115472 1.0870491 -0.39520407 -3.1190429 -1.1243147 -3.0788255 0.33868805 3.344707 -0.6874714 1.8703111 -2.2894862 -2.127517 -3.6612008 -4.0033903 -0.29401213 -1.6442411 -0.11810078 0.9998745 -1.0785427 1.1298729 -0.20775564 0.103358574 1.5425117 -2.79259 -1.7035248 0.864326 -1.2983717 1.2739573 0.6334849 -3.3173282 0.7654 -0.9392876 0.5858453 1.3659977 -4.547725 3.0122497 0.63442445 -0.95178396 -1.95812 0.2953967 0.54256684 -1.912481 1.5210065 -0.7880074 -0.96871346 -0.04315857 -3.5156875 0.27783996 0.7031369 -0.62668526 0.24799205 0.25508946 -1.9285679 -0.5995165 0.24129218 -0.74427813 -0.9072319 1.6813931 3.4390817 3.0176842 -1.0434914 -1.4459908 -1.162613 1.9040754 1.0175387 0.27620617 5.016331 0.17683038 -0.82594234 -1.8335874 1.0676584 0.4520257 -3.3799763 2.304594 -0.114475995 -1.43261 1.8142844 0.1994296 -0.73295236 -0.111956194 0.7443066 -1.3283126 -0.25368258 -0.6369832 -0.8928387 -2.755585 -1.6338383 1.2931603 0.16472867 -1.3541479 3.596634 0.3928488 3.5104423 0.44208616 -1.0585129 0.14423889 0.89999485 -3.596206 2.0047662 0.64943373 -2.5743153 1.9334846 0.70466435 -2.4928315 -3.4298842 1.238965 0.3119944 1.0503334 -1.2948688 0.71125937 -0.5548047 -0.3206118 -3.9549723 1.0640298 -0.42896283 -0.67942333 0.4462626 2.7680655 2.6146288 0.60540843 -0.49991044 -0.5266774 0.904007 3.0564396 -1.6495469 1.4447447 -0.17387758 0.2881669 -0.66522795 -0.34868264 -0.62182987 -1.457056 0.2854137 -1.0021163 -0.9641821 -0.36475757 0.7346843 -0.48022303 0.40250978 2.264296 2.1037462 -0.6110417 -0.6744053 1.1793675 1.0388224 -1.8596131 0.050681725 2.8131006 0.5854691 -0.076211676 0.6926804 -2.8536813 3.5656579 0.7373802 -2.8172154 1.022129 -0.92904127 -2.9421852 -4.756669 0.37858266 -2.1099246 -1.4996556 -3.9641306 -0.7788931 0.25675565 0.6781645 -0.77629983 0.42279345 -0.2963543 0.8305483 1.5481868 0.013441434 -0.2217555 -4.194653 -0.29672328 1.4634441 -0.04935662 1.6706208 3.1326795 4.579257 -2.8225405 -2.3270493 -1.8650204 2.400304 0.31956047 2.4089596 -0.65673256 1.7323253 3.1420856 -0.6793088 -2.7156928 3.7811356 -2.704826 0.3808434 0.35525274 1.2141749 1.4434179 -2.6487699 -0.006995678 0.99753845 2.1179402 -2.055638 -0.8251888 -1.5074546 -3.8161442 2.3039732 -1.1496239 0.591903 2.9323583 -0.48625475 0.05299145 -3.4591508 0.24204817 -0.36248624 -2.196842 1.0423921 2.075677 1.9055622 2.7114117 0.4138404 1.9037068 0.14837794 -0.21755898 3.466584 1.1682584 -0.8445397
于 1.0370933 1.1329119 1.0076474 -3.7019963 -0.75182307 -2.164754 -1.1216578 -0.59524554 3.9668546 -1.0933734 1.4198115 -1.3269012 0.14462917 1.2473035 -0.7252561 1.5367919 2.4959538 0.9216484 -0.8942602 3.216801 2.374451 2.5573983 -1.9748232 -2.52986 0.31457528 1.7244339 -0.13305765 -1.096281 -1.4127531 -1.9311786 0.9672875 -0.5292366 -2.7796795 -3.8084698 3.4470193 1.8214171 1.9424161 -2.2936547 -2.7675385 -2.0991023 -1.4777354 2.8467164 -1.0755485 -0.14383405 2.5469003 -3.151447 3.59113 -1.8376236 0.036004465 -3.7905192 -0.73316497 -0.09726919 -5.4340577 -2.7494755 3.228563 3.1393716 4.3886514 3.3987343 0.41411868 -0.19096369 -1.059469 -3.1204267 -5.0038958 -0.8803048 -3.0460837 -1.8925927 1.265615 -3.7323568 -2.882348 -1.0354756 2.010212 3.5765886 0.6239499 -2.855329 -0.8633514 -0.092405364 -2.5414412 0.74774873 -4.8225656 0.37280154 -3.2163935 -0.28963777 1.4255644 1.9071351 -0.7183059 -2.5048435 -2.1173272 -5.4673495 2.8108585 2.3774698 2.3522615 0.19361913 0.5389147 4.2193384 1.1970576 1.9751741 -0.37304074 0.4422508 1.7014912 -4.309302 -1.6252589 2.412339 3.3812897 -3.596665 -1.732826 1.006833 0.3029169 1.4173882 1.7429079 0.22118875 3.119027 -3.1375105 1.8898103 -1.9891452 -2.7602897 1.6107492 0.5596507 -2.2890549 -1.9649612 -1.6803691 2.586187 4.8406754 0.69138026 1.0554518 0.8889864 3.3892446 -2.4611168 -1.5855132 0.16601273 -3.7631903 2.1782444 0.15954211 -1.2093372 3.550465 -1.0874596 -1.5056736 3.5622654 -1.2214826 -0.60787255 -1.538462 -4.2831073 -0.846641 -0.321201 -3.180221 -0.71123546 0.5833165 0.10541667 1.3821626 0.0805087 -1.3522532 -1.3014596 1.3543427 4.9907813 3.5032454 -2.5808334 -2.0942545 -0.62538236 4.173368 -0.21296306 -1.7181664 -2.2808583 0.21283752 -0.1501184 1.7561071 -1.8403273 3.0465057 -0.97837955 -1.0312277 -1.0524614 -2.254633 -1.6951181 -4.498096 -0.5931736 1.1902322 -5.492641 -2.1994617 0.102134734 -1.0126967 -0.03415082 -4.5830965 -3.095155 3.0511086 1.8620855 1.6044728 -0.44494888 0.5981321 -4.8364773 -0.8795015 3.1924284 -4.385764 2.647132 0.17333542 -0.7812873 3.386383 0.557511 2.5008128 2.3301418 2.8695586 -2.8107014 -4.0924454 0.922448 -0.7559275 -2.1701696 -4.847076 -1.3524452 -2.6311114 -1.5935991 -3.2836874 1.6308302 -0.46126533 -0.817758 -1.1172304 -0.38910392 -0.74076957 -1.3029428 0.70718145 -2.9193866 0.37193295 0.8040725 -1.7201123 0.92203414 1.9337285 -2.2081723 -0.25608578 -0.56911343 0.6589828 0.108404174 -1.9163783 -0.09850017 3.2143424 3.6769776 -1.9899715 -1.2240236 -3.7265913 -5.904003 3.143785 1.1046971 3.8267834 -1.4768939 -1.894607 -2.636943 -0.52994597 -0.016585682 0.24284995 -1.721469 0.87868404 -0.14582889 1.1691196 -0.6858814 -1.0772115 -0.83131635 -3.126524 2.8335562 0.84851027 0.13480447 -0.016749935 0.099267535 -2.8805075 -0.6204614 3.325051 -2.5121534 4.5879545 -2.4049714 1.2749252 -0.44344595 -3.4874578 -0.28879 1.1410044 -1.0972973 1.2993292 -0.8143659 -0.7345098 1.075576 -0.18198195 -0.37942365 2.1160276 2.115718 -1.7743372 -3.3482518 -1.4016 -2.1899335 1.6752683 0.30099967 0.06636234 0.86068124 0.13408694 3.3458345 0.32268366 1.7791125 3.39968 -0.7667395 -2.2201188 1.0507526 -0.45169047 1.4088387 0.6492645 -0.7253593 1.0054696 2.8577492 -1.8811322
大 -1.1484168 2.310537 -0.17793453 6.496498 2.5170608 -0.14345965 -3.9596088 1.0375676 -2.2270398 -2.259705 -1.7423344 -1.3197509 -0.46403843 -0.39244542 0.12891044 0.3706587 0.6337185 1.8026985 2.6967833 -0.30998057 3.5038958 -4.2153907 4.049846 0.57579184 3.4300983 1.3697703 -2.151387 -0.6260585 0.16404237 -1.1633465 -1.9927047 -2.4386106 -1.2224805 -0.73932976 0.3030322 -2.1755557 -2.9219332 0.5822061 -2.5439034 0.8241064 -2.8094664 -0.9750348 -0.868566 -0.24407479 -1.8354446 2.7830856 -0.24614203 2.2194378 -0.42368162 -0.9842351 4.423473 -0.35988784 3.2303088 2.7126215 -0.23491561 -1.8612907 -1.7644272 -0.7641526 -0.10010311 -0.07974358 2.006271 -0.105890945 -0.97893935 3.4994 -1.3835948 -0.20026802 1.6555462 -0.3921005 1.0144405 1.3221203 -0.43060678 0.4399937 -2.3064413 -0.37341166 0.88656616 2.0422318 -0.26181972 -3.018296 -1.4676638 1.650236 -1.5955582 3.6958268 -1.9081036 -0.8344143 2.2313488 0.107249446 -2.411216 2.9623246 -0.808194 -0.67399985 -0.43029127 -2.6475444 0.24821076 1.0512404 0.33189124 -0.5912715 -2.934796 0.74849766 -1.1967746 0.54559505 0.33215845 0.4433678 0.9813702 1.9267665 1.6002907 1.2258457 -1.3131447 3.9181442 0.20437439 -0.77869225 4.776636 1.2132819 -2.1183186 0.9796057 -1.3014479 -0.97842824 -0.9405078 -3.502899 -2.1888475 0.6572076 0.12473778 -0.3867986 -0.2962411 0.7233273 2.2770467 -1.540243 -2.6471925 2.1717405 -0.5894382 1.4046575 -1.4227027 -0.47187376 -1.2119876 0.10863699 3.8351347 0.68722636 1.6676921 0.110296845 1.4379572 3.1440668 -0.063835815 -2.6912074 -0.7022011 2.4172828 -0.7797332 -0.73609215 0.32086736 -0.8704903 3.4640243 -1.0786498 0.47970712 -1.3334326 -0.5258625 -0.94298023 0.29320645 1.060707 -3.0842502 -1.4910249 -3.0325105 -2.6222126 -2.2960858 0.6091623 0.776701 1.2477317 2.1619816 -0.21589908 0.017867632 0.92543566 -0.41106898 -2.3989103 0.5268054 -1.2641261 -2.8516262 1.068868 3.0155962 -3.2492003 0.58154297 1.6295038 -0.85593665 1.5471171 -0.14059676 1.3707117 1.774621 0.7713308 2.095616 -0.4297801 0.7589156 0.84941995 1.3596617 0.24707809 2.499074 0.9067923 -0.799392 2.7260776 3.8996565 -3.2982628 0.97443604 -1.2719233 -0.321851 -0.59680784 1.495113 0.50116134 -1.9990473 3.3776703 1.3075305 -1.6877929 -2.7254817 1.7867635 1.376929 -2.9022288 4.4065957 2.1846468 -0.11557854 -0.14102577 1.2824106 1.5358489 -0.4034525 0.21330242 -0.58882165 1.6907872 1.0219214 0.984611 0.9769845 -0.9158145 2.765817 4.517847 1.403274 0.09738438 4.6091223 0.4920023 3.048928 -1.8386132 -0.9671262 -1.1791282 -2.5150611 2.0811856 2.3180757 -2.2119925 0.70461047 -2.1907117 3.419509 -2.3756137 0.16349736 0.921297 -4.370266 -0.84695745 2.3197193 -2.3204813 1.4238918 1.6023316 -1.2096545 0.43017957 0.30308655 -0.6183658 0.5678156 1.1942513 -2.1843581 0.040961996 -1.7733816 -0.94157124 -0.64790946 -0.9729417 4.525287 -0.41590947 -1.271172 -1.0169134 -0.11301971 0.43909544 5.441554 -2.2823997 1.2833047 -0.40004614 -1.1704292 -1.2840984 -2.1703994 0.024462871 -1.2691786 -0.0768593 -0.4665853 2.0325265 3.2434738 0.61094975 -1.8781856 -1.1134657 -1.2991934 -0.32950968 2.7704523 0.032835275 -2.1167407 -1.4405872 -1.8557286 1.8979617 0.13432021 3.6287458 1.3276159 -4.587805 -3.1725218 -2.864556 1.4909132 -1.7573779
有 1.6705782 1.2684191 -2.7818263 2.0888414 -1.9795709 0.1546714 2.3956344 -2.391638 -0.092283756 0.84105396 3.3631194 0.13019969 1.5661956 -0.16609716 2.540436 0.41247812 0.678748 3.4303305 -1.1770022 -1.1243916 -1.4309443 0.65876657 0.964858 1.2589234 -2.1250522 0.58829796 -2.4322155 -3.0015075 -0.11877625 -0.30561885 -1.2962657 -2.9862463 0.33581468 -1.9481933 -3.4080317 0.6551454 -1.0422399 -1.7801533 -1.6599612 2.2970057 0.8572054 2.4423456 4.2687373 -1.9593443 -0.18924996 -3.8167367 -1.0264977 0.69940484 -1.1830356 1.3053684 -3.249511 -1.4457301 -1.3288002 -3.7268984 2.2121198 0.5068934 4.790314 0.048056312 -0.3675893 -1.9505664 -4.222485 0.83365315 -2.177229 -3.3985004 3.67483 -1.5555309 0.3365472 0.9207801 4.879469 -0.2966933 -3.7259078 1.9880713 0.8976666 0.46200162 -3.1794791 3.1634223 -1.4072546 -2.6815379 1.4881154 0.6183223 0.93167657 -2.7808406 -1.0207564 -4.9305205 -1.0650084 0.09340944 -2.0512407 -1.3140826 -2.6353328 -2.0779543 3.0806088 4.233474 4.859357 0.4122114 2.6480627 1.6906307 0.38830155 1.7766818 -0.033321388 -1.7558826 -4.451766 2.2539246 -1.6449156 -4.0351267 -0.99417543 0.5362127 -0.3741065 1.2547265 0.40640536 -0.76939505 0.9212471 -0.9216475 -5.072403 -2.4024804 1.4693063 1.4164388 -7.4582872 0.5335096 -1.2974377 0.94130313 -1.5686312 -2.2094452 0.11427834 1.1213703 1.9722407 -2.592097 1.0860968 -1.5002304 -1.1867037 1.4470798 0.6177127 -0.4113248 1.8712118 4.361934 1.8334874 -1.308535 0.88714343 2.9068344 0.5157516 0.3680508 -0.9755327 2.06494 -0.41189328 3.653818 -3.183509 0.18309572 -1.8483534 -2.4739325 -0.2344604 3.867866 -0.1257258 -0.30023974 1.564884 0.936907 -0.1873399 -0.08341617 -3.1878965 -4.454606 -2.842761 -0.4278083 -0.5771688 -0.33333877 0.8635141 1.1868839 2.0673125 -0.94517165 -1.7782527 -1.8572485 2.3362474 -1.0981737 -2.876192 0.5413286 -1.1251364 4.542743 -1.5538905 -1.8438283 -2.7783148 -4.503348 0.49006444 -1.0901995 -4.15874 0.63812083 0.30417067 -0.5385313 -3.351974 2.1351044 -2.0508723 -0.699763 1.2262363 -3.0426433 -2.0693276 0.28736782 2.21583 -2.958151 -0.21030425 3.112602 -0.2016153 -2.6377978 0.1620482 -0.49373248 3.08828 -0.8960936 2.4610913 -0.127382 -2.7262058 2.6183255 0.45253515 0.28727052 3.0346117 4.5442796 -0.8331163 2.3843908 -1.6270858 -2.4609692 -3.6598709 0.91999054 2.6064332 2.9142485 -2.9348338 -1.116657 2.060191 -1.3939894 -2.1642406 -0.43012547 0.9397777 3.258039 -0.68462116 -1.1801999 1.7315804 0.44993323 0.07949218 -0.65927833 0.9836747 1.6408128 1.1713741 2.626182 3.2675462 -0.12814526 1.1190313 2.3841705 -6.326779 -3.1409328 -0.6805616 -0.33056462 -1.2414459 3.4441464 -1.9521244 -0.38219792 -0.73605424 0.30443442 -4.042082 1.5679042 2.0259573 -1.9703078 0.59705395 2.1255271 -2.4057 -0.5805883 -0.082765296 0.3197161 -1.113699 0.7874308 -0.8137617 -4.143785 -1.7487775 -1.2471155 -0.83124304 -3.9207141 -0.44237596 -3.8715672 2.1746914 1.689481 -1.6330705 2.5393515 2.1396995 1.3205696 -0.75421435 -2.7248354 -1.6826191 1.4854221 -0.5129349 -0.7844676 1.4713131 0.07816272 -1.4406135 0.6627063 -0.35163677 2.169476 1.6499219 -2.9438484 -0.8855751 -2.0519695 -0.14295632 2.6401806 3.9217076 0.21075629 5.010086 -2.6683617 2.6851437 -1.6227196
e 3.0079958 -0.31583986 2.4209187 -3.7232356 3.5031734 3.6428895 0.29271802 0.42048925 -1.2604523 1.954925 -0.676965 -2.5070431 1.7427127 2.7576416 1.4926524 -1.8399332 -1.1272519 -2.380662 -0.4622911 2.4385076 -0.026090536 -1.3938147 1.696966 -1.5122358 -2.1937063 4.776646 -1.0563079 -0.69191426 -1.8157011 -0.70963275 -1.1905859 -0.35555518 0.13070862 3.0439837 2.9169164 -1.1352696 0.24491091 -1.8645357 2.8813462 -2.5676246 1.0445642 -2.9361186 0.6248268 1.999693 1.2343674 -0.59534496 -1.4210964 1.1921399 -1.68897 -1.5633724 1.4730607 2.2706006 2.39093 0.90067744 0.13408947 0.21786103 0.80678964 1.0298643 -5.2438326 -0.07629601 -1.3410581 -2.5931845 2.4504588 -1.1095961 -2.073501 0.5035087 1.361002 -0.33441785 -4.33073 0.20352158 -3.535151 1.1421913 0.91213757 -1.520792 2.2108958 0.54531986 -0.06361618 -0.6406683 0.55692434 -1.4592329 2.1859539 -0.8129912 -2.3561716 0.7939297 -0.25733486 3.0035362 -0.7371844 -3.7667813 -0.7717128 -0.054184627 -1.8698176 0.14975114 1.9877948 0.13863198 -1.3788892 1.8938544 2.3950555 -2.0052164 -1.2666093 0.79598397 0.1343427 1.6316758 -3.2613316 -1.7751836 1.6696197 -0.14855285 -0.049641315 0.21451126 -1.7213037 -0.18340431 0.16413315 0.30629078 0.08803321 -1.8635488 1.8791316 0.49195215 0.1335655 1.2012517 1.4311094 3.1589746 -4.0781655 -0.6439938 -0.03398935 -1.109963 -1.082724 -2.083279 1.8540094 -0.8127845 1.8660887 -0.44853917 -2.1714392 -2.4884448 1.4440439 1.7841713 -0.46829358 -2.511412 -0.7963588 -1.8442566 -0.044504493 -0.28535074 0.104071364 2.3283324 1.7530017 -1.0841244 2.2670546 -1.0682845 -2.1697283 0.30164948 -2.1782608 -0.23529407 1.6888254 -0.87816215 -0.16710028 2.2265434 3.5265443 -2.757498 -2.0909522 2.916414 0.08666558 -0.5059429 -0.8901229 -0.699946 1.3595141 0.5117199 -0.42712724 -0.60299915 -1.0117898 2.068898 -0.42957366 0.51697683 1.5168537 -0.46347237 0.93771553 1.8460581 1.2737482 3.3396745 0.18301038 0.5876733 -5.4131265 1.2907919 -2.150047 1.1742764 -0.25655505 3.014519 -1.6473455 -1.446082 -0.34747028 -0.030093454 -3.4280927 3.111813 -0.006169998 0.053807292 0.88647985 -1.8369082 -2.3202815 -1.0548246 -2.8640866 -1.3136609 1.9295537 2.3844216 -1.630975 -0.26097158 -2.5779393 0.8970383 -1.9129356 -0.88480836 0.9315947 1.2616799 -2.2769258 -3.4883168 -1.2599113 0.115466736 -1.1031983 1.4152309 -0.73632747 -2.66017 -1.4542917 -0.20607714 0.3322696 0.37916207 -1.9105803 0.64078975 1.5609989 0.20518743 1.0598935 -1.0139714 1.7969869 1.1944131 -2.614582 -1.6041067 -4.0275745 -1.5038279 -1.4164788 -0.9961852 -0.043973617 -1.7312877 -1.3213075 0.72227836 -0.6580938 -1.9509144 -0.025414424 -3.5584824 0.6930778 -1.8561466 -0.34148315 0.7122149 -1.1394281 0.41502768 2.9890432 2.4657238 2.7535183 -0.86552966 1.0682614 0.3297345 -3.0684273 -2.2353883 -5.1127787 2.5720818 -0.6372047 2.6502585 -0.713127 1.0340385 -2.8718216 -1.1714022 -0.09782211 1.6271871 2.4732623 2.3190765 0.14146861 1.408385 -1.3720894 -1.9011624 2.1481512 2.4445648 2.0444613 0.52621734 2.2540557 1.737503 -1.7947087 -0.16617021 0.3398951 1.2145364 2.2382967 -0.8883001 2.4156845 0.2953724 -1.4404247 4.205203 -1.3985295 0.17949128 2.6977472 0.6470785 1.6310524 0.5286398 -0.4709692 -0.54713315 -1.2818339 -0.4127084 -2.1785135 1.027965
a 2.2172503 -0.15760452 0.92763585 -4.396713 4.038716 3.3182793 0.66691107 1.1107233 -2.0389743 1.8005283 -0.9806294 -3.1539605 1.5282577 3.7770448 1.5257933 -2.1565819 -1.5989751 -2.7965565 -0.56960315 3.6040916 -0.40975332 -1.9085572 1.6596513 -1.9468393 -1.5432557 4.7803564 -0.24151887 -0.20175692 -3.6627824 -0.91816515 -1.8303573 -0.5440813 -0.22964664 2.976194 2.9174428 -0.65922445 1.1098502 -1.593089 2.9508965 -2.099707 1.0473404 -2.8003402 -0.5102085 1.8002968 2.41434 -0.917347 -1.6113768 0.8546566 -0.665012 -2.4495988 2.5988383 2.0762188 2.2762043 1.1714602 1.0247253 0.4297583 0.9809186 1.1909367 -5.41347 0.9792626 -0.29441094 -1.7882067 2.195965 -1.4199829 -1.5841607 1.0526134 0.6729644 -0.30261067 -4.029878 0.14388666 -3.0009239 1.6604632 0.50030255 -1.2756797 1.8947444 0.7655337 0.19969136 -0.29695272 1.2606066 -2.1530287 1.8233786 -0.41270515 -0.89236313 -0.0049332236 -0.56173444 2.8204803 -0.77971417 -4.09916 -0.4359331 0.17914039 -1.6602498 1.1533446 1.568228 0.06790105 -0.67556536 1.3083534 2.5028305 -2.503101 -0.9030345 0.9455994 0.91831523 1.6442912 -2.5170748 -1.9012368 2.8723366 0.5116101 0.8714899 0.4350221 -1.5701191 -0.03898302 0.9022775 -0.063163266 -0.52324736 -1.113622 2.5646405 0.9388601 -0.39892069 0.97875595 2.241614 2.6802351 -4.8915977 -0.347101 -0.19102266 -0.3547271 -0.5702232 -1.3633492 2.70498 -0.1893339 1.8814555 -1.3028209 -0.6290939 -2.859432 1.1235098 1.8878967 0.16665202 -3.2739034 -0.8578481 -0.9533398 0.09064027 -0.041917462 -0.03962988 1.7701432 0.4245631 -2.1509323 0.8680393 -1.7231749 -2.5172906 1.3524861 -1.4283259 -1.2064599 1.221169 -0.67740214 -0.5420697 1.3853936 2.0977364 -3.17198 -1.717183 1.5545592 -0.11734232 -1.4763147 -0.8482594 0.08279816 1.2249933 -1.5484583 0.1139425 -0.50537455 -0.7624796 2.2292736 0.042830054 0.79550403 1.3144796 -1.5038089 1.4608234 1.8948314 -0.06609967 4.210744 1.2360792 0.34511843 -4.45634 1.8588644 -1.8216485 1.0953392 -0.8120098 2.1233137 -1.3085707 -1.6344709 -0.79650444 -0.5841194 -3.5316575 2.5863347 0.14744157 0.36846778 1.0424792 -1.9427204 -2.9676037 -1.866137 -2.5423203 -0.42253143 1.0411265 3.1295714 -1.8675559 -0.74581724 -2.3380096 0.42599827 -1.3103249 -0.69183403 0.18245384 0.86775047 -3.2857962 -3.1554527 -1.277489 -0.0780618 -1.0794796 1.6764913 0.050379194 -2.207204 -1.0756185 0.44755355 0.65160483 -0.38213646 -2.1464152 -0.49438712 0.4772395 0.90390635 1.6046654 -0.5279069 2.1842191 1.7814336 -3.7429364 -0.96262175 -3.50024 -1.9178244 -1.4093056 -2.2850914 -0.73200756 -1.832487 -2.216825 1.1906515 -1.354872 -1.716114 -0.2129323 -3.4628072 0.6990714 -2.579468 0.9598693 0.95550704 -1.3731228 -0.16308998 3.233532 1.8568234 2.0283945 0.11635655 1.6935655 0.19512182 -2.829922 -1.3793136 -5.1856766 1.9239013 -0.9290966 3.1126401 -0.98281866 1.1398867 -1.6627219 -2.1524222 -0.42427355 2.7920227 1.9787105 1.9071159 1.1508332 1.0443956 -1.1913241 -1.0532047 2.0755427 3.3577392 2.9537117 -0.029876836 0.95720214 0.7695774 -1.2449094 -0.462462 0.5967846 1.9292654 2.3989704 -1.1698515 1.837822 -0.015916899 -1.0094455 3.7356853 -0.69276154 0.4809364 2.5624034 1.6813619 2.1858776 -1.1785111 0.31458184 -0.2490955 -1.0959675 -0.03888565 -1.7185193 1.9604472
3 0.4571251 1.2776744 -0.109058104 -3.2978837 1.9401032 0.8369911 2.7538702 -1.4102836 -0.651496 -1.4878293 -1.9383622 -0.6852862 -3.375469 -0.78671235 -2.731146 1.8808756 3.7888176 3.3154998 -0.55907404 -2.1862617 0.0051297187 -0.60569894 -3.0259244 -0.19448864 -2.2258098 -1.4699731 -2.103558 -1.291006 -3.7898734 -0.50043386 1.0793159 1.7485055 0.3650165 2.2790532 2.078708 -2.9154277 -0.10929925 -1.6315831 0.7295439 0.05608681 -0.75874424 -1.5362747 -2.253817 5.0778775 1.2910273 -0.83027637 -0.88831854 -3.5349786 2.2847302 -1.0246646 -0.061813626 -2.5922086 -2.5613708 -2.3214374 -3.914123 1.8641769 -1.6924272 1.3380668 1.7331676 -0.04828338 0.918844 -2.6363328 0.2774584 1.150602 -0.4021552 2.6743405 -4.435573 -2.403721 -1.2811615 -0.2311874 -1.6473238 -0.7422839 -0.002037958 0.84865063 0.46111482 -0.2698614 0.7620264 1.2649555 -0.68171793 -0.7514878 0.15499924 2.3622434 3.730926 1.5432647 1.8869964 1.1914594 -1.0547762 -3.363442 2.888049 2.7862427 -0.67532897 1.7728776 -1.8406568 0.19963484 0.10001685 0.66218 -0.8299088 -1.355751 5.9280667 -0.3993152 -1.1922777 -1.1988902 2.415361 -1.4173076 -2.3619032 -2.3032053 1.8004833 2.6279109 -2.4478064 2.3293765 4.359802 -2.985286 -0.7603303 1.5075717 -0.5209833 -2.5639617 0.24424578 1.1075537 -1.7359622 -1.2722751 -2.0112462 1.7294209 2.5402164 0.7391153 1.4245611 -0.07122279 -1.3578899 -1.7885995 -3.9937012 1.0964342 -1.042378 0.85449886 -2.9580605 2.144176 -2.1259797 -0.13841657 2.3671055 -0.6279275 1.0822524 -2.4681625 -0.0622335 1.4253733 1.2669694 0.593715 -0.051769253 1.5804328 -1.3850353 4.1991534 -2.6775103 0.6594552 0.38281405 0.75842494 -0.46706462 1.9569745 0.06575621 -2.7440777 -0.592093 0.42194808 -0.040212568 -0.71875066 2.625375 0.33946946 -5.2331367 3.3797739 0.84432435 -0.16292796 -0.33613703 -1.4579339 -0.08505398 -0.5619274 -4.7072306 1.230034 0.8829418 1.6043041 -0.5593716 2.9829946 3.3034017 -3.6105423 0.48491022 1.3948027 2.674552 -0.72594404 -2.0117 0.34581283 0.19708204 -2.2690015 -1.0693859 0.88098526 1.7342713 0.6625071 2.4441712 -1.1516061 1.2054565 0.04554483 -2.61578 -0.6259062 -0.41874942 1.8217255 1.2912394 -0.3903281 -1.1816499 0.7136614 0.92071605 -0.4258316 -1.9398336 -3.5368161 -1.4287258 0.32418382 -2.9037135 -2.0030124 -2.0746164 -1.550261 -4.543107 -0.22545426 2.422792 -2.261585 -0.32176906 -2.1594453 1.7834167 -6.6700068 -1.2990335 -0.9808927 1.4986595 0.52704954 0.1552199 -0.32666427 -0.2295622 0.13823177 2.8360705 2.5250478 0.5527771 0.1483451 -2.3226504 2.3262165 -4.786156 2.0928786 -0.6208945 1.6969764 -0.16986306 -0.4835497 1.4211665 1.0992738 0.55697846 -2.6934705 1.0146749 0.8962446 -0.20216201 2.0444207 -0.23698613 -0.56823677 0.4509803 1.9330432 -0.36182424 1.6046525 -1.6563001 -0.51416725 -0.25189096 1.6712363 -0.47459468 -1.8835844 -0.6417484 0.8581992 2.9945352 0.2044348 -1.7762864 1.8323154 1.2423491 -5.1375413 -0.3598324 -2.2249906 -1.2391881 0.7459885 0.90484136 1.4300516 -0.10411962 1.03197 1.4503485 0.674073 -1.8294109 -0.80725193 -1.9554125 0.803008 0.041705154 0.3526554 0.25985068 -2.4424922 0.956409 -2.087669 0.43156856 -0.3541984 -0.8466979 -0.08617493 0.68757296 -0.57615274 -2.3792436 -0.92871606 3.4418416 -1.8490554 -3.5446508 4.0552297
5 0.37450516 1.5944021 0.32086006 -3.449099 2.0406492 0.8613889 2.6621673 -0.92533714 -0.7679194 -1.841974 -1.6122212 -0.7314245 -3.0865133 -0.87525016 -3.1259062 1.730541 3.8292382 3.307477 -0.14767377 -2.245555 -0.79848194 -0.40433162 -2.8673313 0.30419865 -2.1921003 -1.4000121 -1.8115551 -0.97625464 -3.5988133 -1.075018 1.7753232 1.6253805 -0.042140804 1.9633118 1.7357186 -2.8526652 0.26556113 -1.2689611 0.15369965 0.055763766 -0.4367344 -1.8015345 -2.498359 5.218878 1.6694678 -0.9324936 -0.879505 -3.6396315 1.7274776 -1.089795 0.03654988 -3.1249018 -3.1144602 -2.2946854 -4.0543585 1.6180406 -1.3058292 1.0682949 1.7295418 0.71454316 0.53690076 -2.4354694 0.40044388 0.93809855 -0.46977976 3.073216 -4.4116807 -2.0262048 -1.192967 -0.27770895 -2.0755498 -0.908616 0.11823768 0.82734233 0.14896832 -1.0654031 1.1604067 1.1022614 0.23666225 -0.8408315 0.55285376 2.489969 3.4699638 1.5864017 1.9640334 0.92247653 -1.0554235 -3.4831495 2.7093532 2.6655118 -0.09720773 1.7942908 -2.112397 -0.34414694 0.3926228 0.44657883 -0.7841537 -1.2592555 5.941111 -0.87699986 -1.3973016 -1.5128775 2.448143 -1.7719709 -2.466839 -2.2722845 1.8320533 2.8407857 -2.706389 2.2871852 4.525962 -2.7293746 -0.8626352 1.7879045 -0.51911926 -2.106773 0.6406074 1.4813472 -1.8293376 -1.681746 -1.9951084 0.8367593 2.9400787 0.43116686 1.0591642 -0.11032899 -1.7797574 -1.9992795 -4.003192 1.4778191 -0.7695181 0.8373405 -2.9406073 1.5815105 -1.9707997 -0.055864207 2.606786 -0.38483363 1.206972 -2.6520662 -0.054249268 1.2770354 1.75536 0.5807587 -0.2362117 1.2947774 -1.4015707 4.7546396 -2.6195602 0.40125245 0.64021146 1.280777 -0.45555115 1.7559487 0.13853982 -2.6683571 -0.5683486 1.1061271 -0.2041184 -0.7239587 2.5103662 0.0038872482 -5.497625 3.3989985 1.0663699 0.10347457 -0.4708296 -1.6181633 -0.62557256 -0.7242658 -4.818 1.1759738 0.9502468 1.3257071 -0.68355024 3.3534784 3.3054433 -3.8433347 0.6697043 1.6428379 2.3261213 -0.8459843 -2.0128782 0.24531955 0.17074007 -2.164748 -0.7453015 1.0176948 2.2974203 0.27192977 2.0804114 -0.92375225 1.4901794 0.027144827 -2.843992 -0.35777885 -0.38712382 2.2684147 1.0022845 0.13069957 -1.1272948 0.32332858 1.2701526 -0.43430355 -1.9905211 -4.0529113 -1.0383039 0.5460699 -2.5840726 -2.2597632 -2.0111065 -1.584759 -4.8739266 -0.13767919 3.197784 -1.9525824 -0.3737948 -1.9807291 1.6112651 -6.6683435 -0.77764475 -0.65567946 1.1847926 0.3361224 -0.14616142 -0.041203346 0.1882767 0.09107283 2.6354108 2.4495473 0.7704354 -0.23003642 -1.7763274 2.3578696 -5.5743 2.2413692 -0.5445451 1.5096568 -0.40411735 -0.91588825 1.3287387 1.144231 0.58129567 -2.7690587 1.649496 0.5828088 -0.046707336 2.0668988 0.2185772 -0.43664536 0.27318263 1.6754863 -0.5119651 1.8743094 -1.4341567 -0.7399591 -0.49806166 1.3455653 -0.86349493 -2.0379183 -1.1200519 1.1721296 2.958955 0.4616551 -1.8599629 2.1431756 1.8981292 -5.167766 -0.03183503 -2.5004408 -0.72280616 0.49363348 0.80475414 1.416887 -0.3406954 0.78517973 1.4208424 0.83448094 -2.0924609 -0.57654685 -1.7081589 0.351125 -0.1745162 -0.18231525 0.08590894 -2.318643 1.041248 -1.8253484 0.31118837 -0.36104083 -1.5791597 -0.197907 0.80001676 -0.37597483 -2.4839568 -1.007938 3.7887783 -2.0247471 -3.0392022 3.9904997
和 0.6557413 -0.09408532 -0.093771026 1.6041816 0.2732247 -0.95373446 0.36281595 -0.70631456 -1.1481582 1.6097113 1.1941475 -0.1833719 0.5904893 -1.727203 0.37567872 0.6525062 0.8242698 2.0400274 0.42949107 -1.2008523 1.3792578 0.47571716 2.6079378 -0.90808934 -0.4826209 -0.09495093 1.2254393 -2.4243944 -1.134715 0.54931456 0.5573895 -0.24210545 -1.1952932 -2.2205815 -0.8227615 -2.1967256 0.07479846 1.2475798 -0.5344963 0.13783951 1.1246158 1.9296131 -0.059763815 -2.3156202 -0.28212377 -1.677351 0.5897865 -0.46955127 0.04160905 0.9629156 2.554741 -0.08418561 1.5163449 0.62815905 0.27314714 0.80364436 0.4402997 -1.2237674 -1.3165159 0.4551886 -2.3747942 -1.0884218 -0.8233428 2.0365682 -1.246359 -2.7597399 2.6019442 1.638803 1.0265211 -3.0980089 -1.6870464 1.1922004 1.2071856 0.52424216 2.4629378 1.3006047 -1.9226964 1.4447854 -0.18356551 -1.4782568 2.6419237 -1.6435165 -1.3054161 0.23590411 1.6857846 -0.3405801 -2.456078 -0.29996312 -0.9468013 -1.977423 -1.0282831 0.32022893 1.4390402 0.6309808 -0.54043084 2.1301186 1.6238197 1.2719624 -0.88312775 0.2852064 0.68650615 0.1197907 0.2865595 1.8593988 0.5486522 0.40682566 0.22209933 0.07388953 -2.110503 0.90167123 -0.16567305 -0.1977073 -0.47393563 1.8543712 0.73614186 -0.06531125 -1.8485669 0.24825668 0.17074402 -1.4989505 -1.2824736 2.2195165 -0.6451103 0.85846406 2.3621526 -1.5034593 0.57976645 -0.79060924 -0.42647576 -1.4130685 0.058108423 0.70117587 -0.9704551 0.083662204 -0.5667025 0.32506725 2.0619197 -0.20195216 0.647538 1.8069267 -1.0703393 0.88693494 0.5760042 -0.5486386 -0.74423933 -0.013739824 -1.5459182 -0.33852357 0.9513589 -0.061517317 -1.5347037 -1.2171943 -1.8673412 1.3257076 -2.3967118 1.1360139 -1.5112448 -0.7465629 0.15691257 -0.049284983 0.2627554 -1.9209716 -1.6610467 0.26602545 -0.96152776 1.5337186 0.4970621 0.09016415 1.031175 0.93701506 0.42696652 -0.8279899 -0.5703353 -1.7042537 0.3956462 -0.62415606 -1.5143901 0.6770648 -1.3299147 -0.029271988 -1.2916487 0.5400617 -0.15825142 0.51636976 1.6977171 1.5668881 -2.4684677 -0.18645103 -2.3808513 -2.1366096 -2.3803942 -1.192498 -3.5263546 3.444976 -1.3171448 0.47837734 -1.276388 -0.9858273 0.5508867 -0.33920032 -0.9703929 1.1738325 0.6413583 0.8313658 -1.0613084 3.1616533 2.285462 0.6232107 0.73927706 -0.8790323 -1.0104203 -2.1760502 0.6307176 0.617415 0.76514035 2.647809 -1.9722482 -0.50505275 0.2303433 1.3812717 -1.4692818 -1.0794314 0.47742978 -0.0080907745 1.0188899 1.5697255 -1.0055784 2.4749868 0.5624326 -1.9164478 -1.3390839 -0.35739636 2.6490812 -2.498602 -0.630799 -1.4342458 -0.6823934 0.714443 1.8508449 -0.30907145 0.48714155 -2.3165812 1.4971982 1.0333554 -0.5389612 -0.8524438 0.28282866 -1.5100051 -1.8146293 -1.8687277 0.18553053 1.0865847 -0.76149094 -1.5353318 1.7294191 1.6344912 -2.3418581 -0.018231284 -0.88934046 -1.4706544 -1.0045971 -1.173125 -0.5927501 -0.87036073 0.21148573 -0.15273868 -1.5210948 0.8193376 0.20782305 -0.80761945 -1.7260363 -1.5499644 -0.55445886 0.8500383 -2.0483618 -0.8576433 0.88829565 -0.27535444 -0.22517209 -1.2246785 -0.81792355 -1.4693404 -0.9592969 -0.9159772 -0.9032106 0.61640275 2.1216178 -1.2487935 3.436143 2.3183787 1.0985658 0.7877446 -1.7369397 -1.9483851 2.0441177 0.110656574 -1.126177 -1.1984172 0.26301137 0.13992633
以 -0.2223375 -1.2336322 -1.2554489 0.5234224 0.008487079 0.34794936 -1.4532948 -0.78256214 1.76566 -3.6293056 -1.7154528 -0.8389413 1.2282397 1.3854951 0.576793 -0.40791464 -1.4942087 -1.3709909 -3.361478 0.545524 -0.3394034 -0.3483588 -0.46433496 2.4131947 -3.0663953 0.14440271 1.4297737 -0.5468477 2.5037374 1.4954743 0.9537696 0.26627192 2.206871 1.2479881 -0.86340344 -0.4910318 1.5901035 1.7035381 -1.2618428 -0.9269597 1.9431006 -1.3511356 1.4029288 -0.18153006 -1.31449 1.9817466 -0.3615952 -3.4063041 2.839943 -2.2701705 -1.8562986 0.6245497 0.6995088 -2.7281945 -0.102029935 -1.4399803 1.1835922 -1.2527095 0.01782732 0.6585642 -3.877671 -0.95054877 -1.1687037 -4.5469275 1.7863586 -0.9894985 -1.4408447 -2.293477 1.1454322 0.09530202 0.35891747 1.6672387 0.57221025 2.6732297 -5.577761 -0.7733971 0.18538623 1.0425857 -1.7928927 0.1926446 0.21403873 0.4897531 2.1736748 -2.584146 -0.32325935 -3.6551898 -0.100745976 1.768011 2.6689682 -1.6975801 0.72627217 -1.8129 -0.78781706 -3.2581785 -1.1494617 1.5858678 -2.005841 2.9391994 -0.91531837 0.18366396 1.5515962 -0.38028607 1.9658102 -0.65258706 1.2536445 -0.8588784 -1.9213464 0.76285654 2.9940953 2.9431727 0.62881005 1.4344449 -2.2146583 0.2760351 4.5254645 -1.7186122 -4.0940475 1.0447915 -2.2133887 0.3690393 -0.123715475 1.4211375 -0.15171912 -1.0166688 -1.3757966 -0.7586543 0.09077169 0.19036506 -1.9373864 3.882934 -2.560651 -0.70547587 2.9365823 -0.9690945 -0.98688656 0.8622428 0.07464447 1.5700948 0.3302175 -3.1822832 -2.2538528 -0.7073802 2.2414908 0.5743483 -1.094702 2.1922061 -2.5434058 -0.19817334 -1.2474842 0.32097286 -1.5924159 1.187278 0.7013848 0.12057907 0.3308947 -0.61860234 -1.2920785 -1.1601404 -0.91769177 -0.49427235 2.2997935 0.8406565 0.36499378 4.253989 0.1716602 4.0415645 0.03917466 0.7571542 -0.11588809 -1.8795254 1.7741619 -2.3152995 -2.0573769 -2.1776366 -0.84122133 3.0146508 -1.3183032 0.028865822 0.1276865 -2.1718822 1.3228171 2.0680184 -0.77794564 -1.6173825 -2.7508256 0.70168376 0.311816 -2.3307076 0.9250862 0.8009854 -2.5653398 0.7084266 -2.357504 -0.9333917 3.9933221 0.21764448 -0.7665045 -0.77228695 0.21074478 1.9710835 -0.80976075 2.2254117 -1.1147281 0.05554868 2.0206497 -2.6198363 -0.62214893 1.9220223 1.8792688 2.982384 0.37794352 1.2088932 -0.25829205 -0.44392604 -1.4080558 -0.16711578 -1.4281806 1.4024557 -3.1250656 1.4248314 -1.5154005 -2.016136 -1.2259537 3.3403642 1.5987786 2.3476682 1.7312251 3.5141323 0.3848865 0.68496865 -0.6191415 1.0728027 -0.32737717 -0.7576172 -1.1875763 4.2959027 -0.32329255 1.4448863 3.7345903 0.13097838 -1.8380929 -2.1175857 0.4052634 0.82447785 3.379628 3.4134116 0.803714 -1.4638954 0.6242383 0.9190165 -6.6323447 0.74718297 -2.4769166 4.847273 1.3583893 1.5272799 1.0921474 2.1071336 3.0428686 3.1943216 -0.85453844 -1.5287508 -0.028517382 0.46949604 2.1318462 -3.5112212 2.422709 1.2200737 1.966605 0.5654541 -1.4908044 0.12223335 0.93979156 -0.6610805 2.520944 2.3095016 -1.7958122 -0.4570938 -1.8326114 -0.8450938 2.3050172 -0.31483066 0.9890613 -1.0681403 4.4793296 1.0138391 0.24834694 1.0073198 1.814142 1.6873002 -1.8065553 0.07514462 0.0651202 -0.522257 2.8221543 0.5172918 0.21506605 0.54023665 1.2444006 1.8695087
8 1.1757475 2.1199844 0.9046238 -3.6694782 2.0058486 0.3995056 1.8016273 -1.6064988 -0.68337095 -1.8145595 -1.4039533 -0.3425934 -1.8954401 -0.21884793 -2.7589326 2.2362814 3.5984464 2.9406738 -0.80089986 -2.0892637 -0.27155486 0.45933628 -3.7906513 0.19736819 -1.8726856 -1.4422426 -1.5766964 -0.55576134 -3.6996212 -1.7505486 2.0845315 2.6459203 -0.4621015 1.5670995 1.7115921 -1.5790849 0.19303057 -1.5074345 0.67907816 -0.89572406 -0.68592346 -1.4296174 -2.8228748 4.722606 2.5472283 0.0057107243 -1.4581417 -3.4087834 1.3091588 -1.2146027 0.4245127 -2.7781851 -4.250476 -2.2438755 -3.7123175 1.0507848 -1.8454485 0.55852944 2.4737983 1.0836473 1.1054026 -2.145172 1.211375 1.3260823 -0.029072354 3.723951 -4.1908803 -1.9109751 -0.45087275 -0.5862288 -1.4116169 -0.64815885 0.0040578847 0.8642947 0.1736965 -0.4090359 0.25247073 0.88976616 0.1723166 -1.4798347 0.61371964 0.94842875 3.1999063 1.5218103 1.6103288 -0.07872975 -0.90487075 -4.499771 2.1523988 3.0283885 -0.5632477 2.1129813 -2.2849948 -0.23057912 -0.15116851 -0.20711495 -0.7796368 -1.1073952 5.90653 -0.45798868 -0.1844882 -0.6498569 2.4996095 -1.7501572 -2.6903856 -1.4391649 1.4106992 2.682112 -3.369024 2.6026502 4.4593353 -2.9968657 -0.13344832 2.818915 0.34750745 -1.410227 1.1179738 1.1710308 -1.3822591 -2.46705 -2.0550292 0.75476265 2.5215397 -0.1311562 0.52348465 -0.25741756 -1.6645503 -1.9482487 -4.2488456 1.6039323 -1.3358626 1.1113604 -2.632056 2.3397846 -1.0197462 0.14253278 2.9213583 -0.5954531 0.6448716 -2.5729544 -0.2281894 0.86331725 2.2832744 0.6154795 -0.2530985 1.5761429 -2.0818253 5.3672385 -2.6270347 1.0531071 1.1602862 1.845934 -0.28088412 1.2688752 0.385296 -2.989419 -0.41306794 0.8507868 0.049720556 -0.5585704 2.0993829 0.879015 -4.0824947 3.4182808 1.3173835 0.17382255 0.35538846 -2.144599 -1.2318075 -0.8025711 -4.710604 0.23159134 2.15973 1.1957725 -0.7142503 2.3673728 3.8292453 -3.5513954 -0.58473086 2.1803272 2.4022543 -1.4768009 -1.8273458 0.6844585 0.42076403 -0.9538139 -0.86070544 2.1287029 2.3186913 -0.17241898 2.4365168 -1.261085 0.4724767 -0.081994794 -2.8567207 -0.13143384 0.2719077 2.4905567 1.4029753 -0.98977536 -1.2214042 0.42755017 0.7398957 -0.6309534 -1.5522102 -3.2635098 -2.061857 0.5405181 -3.228837 -2.85658 -1.9258564 -2.1265602 -5.4823813 0.31860515 2.8107405 -1.4528855 -0.5734933 -2.0346277 2.2149475 -7.0692205 -0.2622427 -0.16016014 1.0125071 0.39488184 -0.8725932 -0.2973702 0.67201596 -0.1413759 2.6459124 1.9648098 0.5092754 -0.122595996 -1.9586316 2.127564 -5.223449 2.05947 0.32436472 1.7465034 -0.8595646 -0.7828939 1.956515 1.5363725 0.464672 -1.8398529 1.3850373 0.06487063 -0.31847498 1.3440645 0.3908261 -0.6910095 0.4949037 2.0309417 -0.18837053 2.2908123 -1.8251313 -1.8053644 -0.23514032 1.1975752 -1.5592693 -1.6596227 -0.49495095 1.626286 2.8175766 0.89965665 -1.3391727 1.8654593 0.99762195 -4.9450326 -1.0008093 -2.5241554 0.10180694 0.5012193 0.9838455 0.14507361 0.1500455 0.21197301 2.3654428 1.1931633 -2.2857695 -1.8394858 -1.8417141 0.21170254 0.6094324 0.010471712 -0.3343597 -2.384534 0.62787116 -1.5426805 -0.29905304 0.058001503 -0.86579865 -0.5333801 0.83421695 -0.46362093 -2.6683269 -0.5495299 3.3336797 -1.8184991 -3.6826136 4.2749157
4 0.44512174 1.2779307 0.042868562 -3.5229065 1.902957 0.7341985 2.5580297 -1.136215 -0.69558215 -1.7561089 -1.8409857 -0.6255481 -3.033642 -0.7818881 -2.9651802 2.0286503 3.7436285 3.2353835 -0.8761442 -2.3488305 -0.05831448 -0.32743967 -3.1846983 -0.24719241 -2.023821 -1.4714407 -1.9624505 -0.9449417 -3.4242728 -0.6553993 1.6204854 1.8645438 0.1744248 1.9602233 1.9651628 -2.8108444 0.020469004 -1.5549936 0.3372826 -0.20794292 -0.87068516 -1.3827916 -2.428438 5.1797442 1.3774348 -0.81725675 -1.0186863 -3.2950666 2.1282275 -1.1180679 0.05017159 -2.8788404 -3.0429833 -2.202505 -3.467001 1.7675868 -1.8384124 1.0797409 1.9889565 0.44415432 0.79379255 -2.8192456 0.41089755 1.2419741 -0.56935626 3.2513072 -4.1016116 -2.222932 -1.3429048 -0.6783511 -1.4731749 -0.80979836 -0.0435594 0.9053703 0.42751113 -0.40357456 0.74668026 1.1067579 -0.087951735 -0.37875435 0.4959195 1.8733178 3.4488459 1.2943892 2.1364946 0.6728646 -1.0599256 -3.617871 2.5406413 3.1289885 -1.0767268 1.6819879 -2.030158 -0.08632204 -0.05369402 0.3852715 -0.8881292 -1.3997464 6.354811 -0.9507769 -1.0098989 -1.2134436 2.1529837 -1.7787083 -2.483292 -1.9286116 1.6057839 2.6196847 -2.5852618 2.3098173 4.8005633 -3.0151992 -0.69176954 1.94955 -0.4368393 -2.319087 0.4041806 1.2151587 -1.4468076 -1.3744682 -2.0629601 1.3062316 2.79079 0.6919836 1.2178276 -0.20457502 -1.3148241 -1.9502846 -4.2403154 1.1676853 -0.7060465 0.8653723 -3.2405217 1.9964191 -1.8952814 -0.0061937603 2.600563 -0.38589153 1.1622272 -2.4502077 -0.40870252 0.9986648 1.7035228 0.5759724 -0.2048596 1.2036439 -1.5738446 4.390602 -3.0064316 0.93024564 0.7839891 1.0197035 -0.40585387 1.639699 0.11456993 -2.746086 -0.7363676 0.44605637 -0.1249404 -0.6015943 2.4035823 -0.021340176 -5.098852 3.3602805 1.2302912 -0.24584486 -0.30065757 -1.6796486 -0.41708872 -0.38423097 -4.646264 1.0637074 1.5174494 1.3263018 -0.927437 2.9094079 3.1546986 -3.6817875 0.28352982 1.6152737 2.2881222 -0.5597984 -2.0951748 0.16496079 0.23387572 -1.8222562 -1.2629739 1.3816864 1.9701686 0.24767685 2.4069042 -1.1451017 1.1688408 -0.06955591 -2.6829028 -0.32242727 -0.35549653 1.902712 1.1173987 -0.44125363 -1.0274289 0.43550795 1.1371322 -0.34444404 -2.011629 -3.655679 -1.6962844 0.50113744 -2.8697848 -2.2585604 -2.272573 -1.9102912 -4.5833287 -0.026329558 2.6521456 -2.1049504 -0.555345 -2.068615 2.183766 -6.803143 -1.3140719 -0.6858285 1.2143867 0.12053295 -0.20463522 -0.3313576 -0.41980502 -0.01426434 2.964236 2.1739068 0.5766959 -0.077265255 -1.914679 2.322422 -4.9465327 2.1116407 -0.6352475 1.7644192 -0.32894352 -0.50731367 1.5521395 1.139069 0.6625422 -2.724856 1.3781466 0.62600803 -0.3441378 1.8869178 0.14132302 -0.5750442 0.49060494 1.899885 -0.580676 1.8547629 -1.4221939 -0.7362496 -0.9061269 1.3991015 -0.88530225 -1.8728222 -0.7867963 1.3839445 2.893991 0.3089832 -1.6419468 1.9109005 0.9597086 -5.226959 -0.3367485 -2.489315 -0.90260446 0.5979277 0.6226938 1.1458576 0.01034627 0.7507491 1.8620901 0.84882915 -2.3549027 -0.95192224 -2.0592637 0.44823417 0.23520759 0.20428087 0.21919698 -2.4104037 0.6759232 -2.4395847 0.112908706 -0.42813078 -0.6727068 -0.3303694 0.69454026 -0.5755191 -2.3218682 -0.6994792 3.4210665 -1.8456702 -3.5594993 4.1366277
6 0.48797333 1.6020988 0.43469572 -3.5166154 1.7387575 0.4212636 1.9409891 -1.4279339 -0.6547719 -1.6613036 -1.5474703 -0.27728197 -2.4105973 -0.7819356 -2.8075597 2.1257343 3.930916 3.2769463 -0.34317157 -2.0500944 -0.14278755 -0.12676199 -3.584927 0.16519655 -1.9715872 -1.2926506 -1.9593887 -0.71577597 -3.688005 -1.262958 2.0625865 2.2302039 -0.16560872 1.807211 1.6811998 -2.4933333 0.035070267 -1.543216 0.5659886 -0.15584028 -0.4280791 -1.3818269 -2.7615633 5.266807 1.8133333 -0.7919294 -1.2414062 -3.6312509 1.6755723 -1.0602719 0.049861796 -3.013758 -3.6502864 -2.2518506 -3.9151242 1.2913563 -1.7188492 1.2240882 2.411437 0.81153834 0.91412795 -2.540213 0.6971874 1.43671 -0.043589927 3.3189871 -4.167084 -2.2793393 -1.1426042 -0.59631455 -1.6239889 -0.49685198 -0.105513416 0.64259714 -0.13431326 -0.46116674 0.8732321 1.1179835 0.102846995 -0.9948986 0.4400497 1.6211659 3.190824 1.6892521 1.8006748 0.4358422 -0.847043 -3.8400836 2.634748 2.8958616 -0.35854083 1.8991648 -2.0343878 -0.3020504 -0.098115236 0.35267544 -1.0274721 -1.1177512 5.990852 -0.6302958 -0.87368953 -1.0357196 2.5180528 -1.682155 -2.5733345 -1.9386907 1.6244553 2.698836 -2.9680896 2.7043512 4.6144056 -2.724819 -0.43394864 2.1566746 -0.2134065 -2.112107 0.77547336 1.2086298 -1.4176451 -2.0703042 -2.1424913 1.0318525 2.4395976 0.13824692 1.1131196 -0.035637695 -1.6126 -1.8024402 -4.1572366 1.4751627 -1.1245697 0.9434308 -2.993414 2.156445 -1.6351103 0.09088897 2.5352936 -0.5321438 1.0704222 -2.759056 -0.18260072 1.1429346 2.077904 0.35730347 -0.18967207 1.3363343 -1.6809856 4.9782977 -3.031382 0.71445787 0.8240529 0.9033668 -0.4645587 1.4122344 0.35556003 -2.8490508 -0.6919295 0.81797886 0.1196087 -0.5205466 2.4191446 0.502768 -4.751175 3.4559758 1.2070547 0.5394684 0.23520745 -1.7467437 -0.7434761 -0.46433333 -4.6194735 0.5600305 1.5521061 1.4245468 -0.8500397 3.009672 3.3132803 -3.7460365 0.03840217 1.991556 2.2262619 -1.1536213 -2.0293686 0.72554433 0.61613315 -1.5266908 -0.7788382 1.4948981 1.9974381 0.055644087 2.4980242 -1.1650249 0.76724154 -0.13666563 -2.761482 -0.32034156 0.028502574 2.2218196 1.2694768 -0.61301625 -1.1541659 0.52188104 0.9804044 -0.6070339 -1.8192397 -3.426161 -1.721985 0.39687002 -3.0904574 -2.6239262 -1.9792104 -1.6404309 -5.134244 0.21294814 2.6966221 -1.8274257 -0.69140375 -1.8243209 2.3594062 -6.97262 -1.126279 -0.595341 1.0459232 0.042366814 -0.2977462 -0.54545194 0.13682848 -0.038394317 2.557886 2.0675423 0.7047142 -0.16658531 -1.7716837 2.1248164 -5.192568 2.0829573 -0.25657204 1.9888333 -0.6285713 -0.80542094 1.6337265 1.3275071 0.72138774 -1.7947266 1.2096914 0.31660247 -0.17840077 1.6492686 0.26442954 -0.70999163 0.38253087 1.9928588 -0.5556322 2.0519257 -1.5917238 -1.0789258 -0.40691787 1.5139098 -1.1877685 -2.0664573 -0.6050191 1.6377337 2.8266864 0.3883724 -1.7832605 1.86154 1.7865604 -5.19603 -0.631061 -2.5031803 -0.4920611 0.5300082 0.9871711 0.8005624 -0.052008834 0.71419555 2.0977836 1.1504252 -2.1680496 -1.5542881 -1.8821384 0.4270778 0.2097328 -0.1576902 -0.23345901 -2.4604955 0.7841797 -2.08248 -0.020095529 -0.2050838 -1.2382082 -0.59351146 0.5069854 -0.6924491 -2.4955754 -0.47359443 3.4877696 -1.7536457 -3.354261 4.1262517
日 -1.0294737 -0.75531113 3.4758773 -3.1773856 1.5163989 -0.6340698 0.3867726 -0.7602908 4.334642 -0.16596247 -2.3042777 4.3457174 -0.23323256 2.4892595 -1.7136956 -1.038356 3.2993863 -1.4602058 -0.2509971 0.4317578 1.8437088 3.3092215 1.7858083 1.6354151 -2.671609 -0.47531936 0.0003055049 -3.8406937 -0.7105031 -0.34735745 2.4213665 -2.329161 0.11187139 -0.1653359 3.7740626 3.621941 0.14854147 2.6195316 0.47340792 -2.5137863 -2.1493738 -2.232793 -3.9043953 -3.8620741 -1.3769491 0.797272 -0.23947486 -2.020399 0.17722131 0.56450707 -1.9040531 1.591516 -1.2355069 -2.0404415 0.744794 1.3736048 -2.9718666 1.7225177 0.24419837 -0.63206387 4.491103 0.081100516 -1.0032452 2.0721445 -1.2626146 4.3698564 -3.897435 -6.6498137 5.0587335 0.76138026 -1.9878014 3.3652103 0.062107153 -3.2892253 -1.5893008 -3.0536568 -2.9098601 -0.88866085 0.47223875 -0.5361206 0.57493293 2.0797343 1.7715822 0.76977706 1.2990458 -5.485499 0.6996565 -7.202312 4.3600225 3.3865414 2.1614635 1.6912848 3.859625 0.6942165 -0.56660455 -0.9598278 1.8516386 -2.4250224 5.772946 2.2013009 1.961015 -0.46825984 2.939004 -1.8034115 -3.4972255 -2.2802894 1.2955045 0.14928894 -2.7473555 2.1010668 3.0056825 -1.3971543 -3.375548 3.070302 -1.9074712 2.0887418 3.3697314 -2.3842952 0.9381683 -3.3664353 -1.3820823 -2.1203206 0.21320525 0.2481025 -3.2540061 1.5594606 2.3582726 -1.7432914 -4.512908 -0.12011993 -0.053372476 2.9735668 -2.5448954 1.9391963 1.1403406 -1.4207829 3.6122124 2.284168 -0.19168974 -3.2993183 -2.4744537 0.057467442 -1.0908655 1.7915921 0.0037290035 -3.4722075 -1.0651513 2.087907 2.768871 0.23788138 -2.890221 -0.37399468 -0.879917 -1.187925 1.5987833 -0.7130734 -3.299022 0.11112503 1.2734835 -3.356749 0.7954855 -1.1300399 1.9883915 0.22912924 -1.5197331 0.010673951 3.408386 -3.3767817 0.85485864 0.32883525 -1.9947299 -0.66828054 -0.62046844 -0.20136987 -0.5440272 -0.6378496 4.3598585 -0.1722906 2.4591396 1.4703554 2.4160554 -3.774666 -0.8520214 -0.054055866 0.3639593 1.8390739 1.3622644 3.192099 4.0242496 -2.661209 3.388884 -0.36574084 4.034794 0.9618981 2.719921 -0.4970446 1.4517239 -1.6627411 -1.4299569 -3.4699118 -1.8292435 1.8160405 2.161967 -1.575354 1.678969 -1.9929141 -1.4131814 1.6974407 -2.8585124 -2.5899951 -1.7170202 -0.215323 0.5964456 0.7444145 1.7428433 -2.0578063 -1.4112562 -4.667194 1.0864685 -4.488398 0.38672084 2.0654662 -0.9346502 1.8696967 -0.9281527 0.12523516 -0.9857571 2.4364111 -1.5712575 0.872464 -0.04505541 0.64740974 -1.14714 3.0376525 -4.7303877 2.615904 0.59727985 -0.15854478 0.14254999 2.1961865 -1.1866307 6.6811333 2.2356586 1.2498188 -0.52096075 2.44993 0.425369 -1.320288 2.1045485 -2.0751278 0.35878497 -1.5108806 -1.0130054 1.8551219 0.22103399 -2.1547952 -0.072335124 -0.11198081 -4.238074 -2.4755023 0.40160552 1.2858874 0.54336447 1.7284 0.36067364 2.2309437 -3.1117573 2.3567204 -0.6610798 -2.2927728 -4.5065722 2.2471814 3.9554434 -5.1662707 1.9650033 -1.5567769 2.7216446 2.2772505 -3.447161 -5.252012 -0.3960215 1.5869199 -2.0665112 3.1009707 2.8795536 -1.5448927 -0.51369745 -3.5729833 1.7727429 1.0575131 -0.3602964 3.1055918 -5.0140615 -1.1452775 0.4112046 0.7146975 4.3720064 4.151473 -0.88068354 -2.6122131
